maine -0.63472 -0.55197 -0.19147 0.43408 -0.26942 0.037184 0.023227 -0.15629 -0.1195 0.39462 -0.3243 -0.7243 -0.21506 0.24466 0.47232 0.58255 -0.36481 0.10456 0.033416 0.011224 -0.26062 -0.096989 -0.41452 0.59194 -0.35308 -0.3704 -0.039605 -0.0068928 -0.45749 -0.00061079 1.1654 -0.64949 -0.15394 0.098394 -0.21448 0.44419 0.20862 0.1472 -0.28894 -0.41349 -0.14559 0.074025 0.5557 0.50542 -0.41806 -0.050687 0.42039 0.24178 0.16929 0.30057 -0.39868 0.43754 0.39595 -0.13111 0.027685 0.12706 0.48264 0.26127 -0.1755 0.25543 0.77592 0.020891 0.64525 -0.43657 0.21613 -0.24364 -0.50425 0.053535 0.036778 -0.53859 -0.11233 -0.45513 -0.079503 0.12647 -0.95491 0.27642 -0.2509 0.096645 -0.38097 -0.35673 -0.47299 0.39549 0.06515 -0.13767 0.070407 -0.13996 -0.40429 0.041686 0.074998 -0.05139 -0.13488 -0.25798 -0.30006 -0.47519 -0.065076 -0.41422 0.074569 -0.16558 -0.077599 0.28962 -0.064609 0.094511 0.58617 0.091069 -0.23577 -0.14967 -0.047202 0.50893 0.62273 0.47397 0.28059 -0.57286 0.14365 -0.32085 -0.13846 -0.13634 0.61487 0.36734 0.34787 0.50466 0.045139 0.49834 -0.40821 -0.32884 0.33258 0.017492 0.31931 -0.15075 0.22741 0.0096056 0.35035 0.81168 -0.26007 -0.23408 0.23488 -0.31311 -0.95857 0.30557 0.36691 -0.066335 -0.010913 -0.14494 0.083659 0.3108 -0.064015 0.51156 0.025868 -0.095623 0.22785 -0.38006 0.72161 -0.81209 -0.22174 -0.4668 -0.23797 0.1195 -0.11509 -0.50565 -0.059633 0.29565 0.035802 0.039062 0.081435 -0.14398 0.11031 -0.43066 0.98651 -0.84102 0.21498 0.46759 -0.19592 -0.70672 -0.96875 0.54303 0.03209 -0.012415 0.22897 0.27996 0.26694 0.11162 0.42296 0.24822 0.21405 0.040879 0.05825 -0.029364 -0.059792 0.070462 -0.045066 0.046244 -0.28412 -0.25287 -0.30268 -0.33982 0.24813 0.01284 0.061456 -0.21093 -0.28384 -0.30566 0.39866 -0.047882 0.054044 -0.022895 -0.51552 -0.084572 -0.083961 0.61724 -0.19658 0.21534 0.076 0.089313 0.33352 -0.029555 0.13965 0.20786 -0.21505 0.027726 0.073666 -0.95395 0.2972 0.050633 0.0094189 -0.75824 0.36435 0.27112 0.082193 -0.55705 0.17945 -0.046941 -0.07058 -0.36187 0.084113 -0.59932 0.30878 -0.88188 -0.4941 0.53268 0.13649 -0.12408 -0.44567 0.045381 0.58475 0.114 -0.28882 -0.65712 -0.2003 0.25863 -0.36993 -0.41062 -0.20068 0.1966 -0.36573 0.55282 0.44249 -0.57105 -0.041448 0.11694 0.053919 -0.19978 0.18989 -0.15496 -0.12501 -0.19399 -0.56259 -0.3014 0.43539 -0.037072 -0.31402 0.40152 -0.077049 0.48166 -0.25863 0.028293 -0.18284 0.25902 -1.1453 0.15354 0.078906 0.46463 -0.080308 -0.01913 0.28459 -0.5223 -0.029258 0.29323 -0.29839 0.25918 0.95841 0.53446 -0.15765 0.069083 0.21329 -0.80245 -0.48513 -0.08601 0.56096 -0.16999 0.13223 0.68426
a -0.29712 0.094049 -0.096662 -0.344 -0.18483 -0.12329 -0.11656 -0.099692 0.17265 -1.6386 0.1022 0.034253 -0.24213 0.048212 0.2706 0.35996 -0.40779 0.23785 0.24245 -0.31107 -0.48287 0.26101 0.11878 0.51011 -0.31115 -0.37005 0.11625 -0.42061 -0.034391 0.11809 -0.48955 0.33693 -0.13387 0.34924 -0.837 0.56691 -0.5367 0.38559 -0.28975 0.6247 0.48489 0.36357 0.35868 0.089597 -0.05536 0.11218 0.25683 -0.076713 -0.19422 -0.18243 -0.32841 0.064014 0.051971 0.20494 0.099948 -0.2716 -0.46416 0.10966 0.38606 -0.38436 -0.38772 0.28296 0.62533 -0.21405 -0.3754 -0.57913 -0.1251 -0.17104 0.43539 -0.18758 0.017773 0.35395 0.30074 -0.19863 -0.37743 0.11643 -0.18239 0.021961 -0.37256 0.023748 -0.096721 0.1289 -0.064794 -0.23133 0.45646 0.14918 -0.039145 0.39048 -0.113 -0.031962 0.036758 0.24962 -0.11699 -0.57764 0.57354 -0.14273 0.2503 -0.059743 -0.18562 -0.068998 -0.03661 0.15586 0.19729 -0.33594 -0.16771 0.17228 0.12988 -0.064598 -0.60267 -0.43089 -0.288 0.5353 -0.085713 0.089749 0.93015 0.16516 -0.14327 -0.060793 0.065698 -0.011137 0.24506 0.3287 0.012378 0.34808 0.047224 -0.20778 0.62321 0.14988 0.30187 -0.32872 0.3404 0.22678 -0.53792 -0.11482 0.41729 0.15157 0.15916 -0.12746 0.23922 0.202 -0.20951 0.36117 0.11522 -0.028047 -0.72466 -0.011893 0.031583 0.1739 -0.1262 0.20053 0.33085 -0.26827 0.28153 -0.044422 0.46704 0.049405 -0.46265 -0.27114 0.097589 0.30885 -0.10546 -0.018832 0.18444 -0.015528 0.047652 -0.1205 -0.2874 0.084141 0.53238 0.2009 0.035318 -0.44411 -0.86037 0.2761 -0.16407 -0.23766 -0.53769 -0.046391 0.55086 0.24044 0.31387 0.24542 0.19868 0.27393 -0.24355 -0.4129 -0.46545 0.60012 -0.26015 0.1929 0.36024 0.18589 0.037866 -0.077942 -0.099914 0.034607 -0.12247 -0.27205 -0.13819 0.23319 0.96767 0.34317 0.044022 -0.31471 0.014663 -0.071928 -0.45375 0.029313 -0.22576 0.20704 0.029607 -0.41761 0.2603 0.23784 0.083533 0.12032 -0.19662 -0.2885 -0.25891 0.71359 0.28543 -0.0017777 -0.10196 0.47297 -0.006194 -0.024529 0.11389 0.059219 0.18821 -0.15918 0.19517 0.23143 -0.016216 -0.51149 0.36894 0.55447 0.17006 -0.081063 0.14756 0.43106 0.62111 -0.020083 -0.051027 -0.42335 -0.95094 -0.098285 0.49542 -0.1441 0.18742 -0.1606 -0.073652 0.067304 -0.097287 -0.27716 0.80758 0.20659 -0.34734 -0.17897 0.48319 0.59006 -0.22616 0.28727 0.49545 0.41908 -0.37884 0.023117 -0.11783 0.079173 0.5605 -0.17425 -0.33199 -0.72821 0.10046 0.041775 0.22655 -0.12865 -2.3832 0.2206 0.51407 0.08616 -0.21772 -0.055862 -0.040358 -0.22208 -0.042596 0.037001 -0.50139 0.10573 -0.16145 0.3616 0.075972 -0.42426 -0.3967 0.32683 0.62049 0.34719 0.26952 0.059717 -0.22853 0.29602
after 0.28957 0.017282 0.11879 -0.055838 0.2373 -0.21366 -0.27623 -0.11871 0.33682 -1.5118 -0.15765 -0.070386 -0.090929 -0.060822 -0.090041 0.37847 0.23821 0.16097 0.040949 -0.17486 -0.20098 -0.24879 0.30358 -0.27347 -0.12537 -0.46684 -0.03636 -0.16363 -0.044856 0.14877 -0.26302 0.046586 0.32891 0.30116 -1.3691 -0.21877 -0.07552 0.34942 0.064308 0.25971 0.1136 0.12986 -0.073339 0.12707 -0.084618 0.14251 0.13956 0.39552 -0.46861 0.17526 -0.060735 -0.35854 -0.039172 0.22354 0.16718 0.15917 0.22371 -0.0049916 -0.050267 -0.22846 -0.14641 0.078337 0.14282 -0.33757 -0.055476 -1.0003 0.3173 -0.23141 0.28686 -0.28314 -0.13647 -0.044722 -0.22362 0.27731 -0.091406 -0.068471 0.16568 -0.24755 -0.23728 0.1013 -0.11055 -0.055984 0.078205 0.43007 0.24747 -0.11824 0.096342 -0.066475 0.21617 0.18138 -0.11872 0.004182 -0.158 0.060053 -0.21139 -0.0080459 -0.25318 -0.1387 -0.083904 -0.52706 -0.063385 0.2704 0.15281 0.12953 0.011558 -0.42677 0.15658 0.12215 -0.35528 0.14905 -0.064622 0.39265 -0.11123 -0.19376 0.47887 0.15671 -0.14987 -0.18754 0.17245 -0.53347 -0.42451 -0.23934 -0.38776 0.089914 0.034646 -0.027991 -0.25815 -0.31697 0.084904 -0.22825 0.17136 0.73845 -0.092265 0.023002 -1.5494e-05 -0.1861 0.19771 -0.1708 0.027535 0.035765 0.20329 0.094685 -0.10345 0.32661 -0.36407 -0.21004 0.35567 0.045688 0.31784 -0.17679 0.43511 0.015437 -0.25518 0.33884 0.61428 -0.0018267 0.079989 -0.24197 0.13673 -0.027323 0.29919 -0.35279 0.038709 0.18399 0.16955 0.11338 0.06875 0.038906 0.077018 0.32863 -0.049127 0.09792 -0.13577 -0.032828 0.26318 0.25249 0.16488 0.036259 0.32311 0.91822 0.17622 0.41544 0.17014 -0.0096712 -0.24086 0.13479 -0.83761 0.11126 -0.34355 -0.20101 0.10168 -0.1191 -0.052622 -0.37066 -0.20753 -0.25902 0.018203 -0.14135 0.24859 0.11858 0.99187 -0.029798 -0.14025 0.029959 -0.23274 0.072412 -0.25398 -0.11155 -0.054316 0.051823 0.052026 -0.025312 -0.10193 0.0090397 0.07296 0.30469 0.018052 -0.10126 0.013154 0.17183 0.6954 -0.27683 -0.31044 0.10513 -0.091657 0.14282 0.11963 -0.3001 -0.045513 0.20864 0.26302 0.031474 -0.41067 -0.38617 0.4532 -0.19133 0.27634 0.13009 0.72036 0.026016 -0.097647 0.016917 -0.09034 0.12185 -0.33746 0.0035174 0.47056 0.00028337 0.10672 0.14063 -0.0042168 0.20597 -0.041144 -0.33724 0.43372 0.12856 0.086579 -0.034042 0.36957 0.33202 -0.3707 -0.015724 -0.23327 -0.035822 0.31745 0.35128 -0.21534 -0.45987 -0.098798 -0.10782 -0.13201 -0.20806 0.10741 0.02314 0.30022 -0.00014243 -2.1031 -0.30445 0.26375 0.44004 -0.5274 0.028529 0.3035 -0.35671 -0.017131 0.45899 -0.54063 0.28477 -0.085126 -0.10231 -0.12078 -0.39224 -0.024101 -0.13095 0.12118 0.63792 0.039345 -0.57292 -0.1657 -0.128
again 0.0049456 0.041202 -0.014766 -0.05936 0.14471 -0.018713 0.20275 -0.24442 0.095521 -1.6522 0.38896 -0.26464 0.17583 0.077966 -0.024525 0.17581 0.13455 -0.1757 0.19307 -0.10659 -0.051929 0.44208 0.037526 -0.49184 0.020842 -0.1739 0.2214 -0.25042 -0.31736 0.30853 0.19484 -0.15699 0.13474 -0.10524 -1.3452 -0.22071 -0.43084 0.137 -0.084911 0.60175 0.076665 -0.26502 -0.24664 0.076607 0.27765 0.45202 0.10961 0.066133 -0.23035 0.30554 0.083456 -0.15685 -0.16725 -0.075779 -0.12841 0.26028 0.17523 0.0027832 0.096304 0.0082573 0.077065 0.0078609 -0.36977 -0.017148 -0.034902 -0.70212 0.12049 0.011064 0.29129 -0.2902 -0.085045 -0.077279 -0.21124 0.55737 0.13053 -0.12559 0.21764 0.21713 -0.32963 -0.23654 -0.075619 0.024951 0.26989 0.24833 0.35196 0.080292 -0.37401 0.2494 0.15111 0.067407 0.14125 0.040377 0.016759 -0.32829 -0.67699 0.31255 -0.20029 0.051172 -0.1301 -0.42772 -0.031884 -0.081131 0.054821 0.28351 0.27505 0.010353 0.015198 -0.12355 -0.057431 0.61361 -0.033145 -0.024297 -0.15971 -0.24415 -0.10809 0.19417 -0.31885 -0.0086445 0.25173 -0.63213 -0.27026 -0.15144 0.14341 0.12979 -0.092837 -0.16327 0.07665 -0.12682 -0.016493 0.14213 -0.015513 0.45418 0.059617 0.13482 -0.33665 -0.059437 0.038712 -0.17422 -0.06043 -0.034622 -0.099811 0.034387 -0.42088 0.45802 -0.48417 -0.084039 0.15799 0.1494 -0.28548 -0.12513 -0.1275 0.046289 -0.11541 -0.036507 0.49618 -0.16837 0.036439 -0.41552 0.067962 -0.0051968 -0.044234 -0.3935 -0.19284 -0.051749 -0.16337 0.073688 -0.20872 -0.077685 0.065621 0.39399 -0.20615 0.14521 -0.088501 0.061636 0.27726 0.4164 0.080426 0.14235 0.027091 0.5409 -0.14339 0.13892 0.17559 0.01741 0.075736 -0.027758 -0.40071 0.34137 -0.11488 0.10034 -0.17686 0.12332 0.1548 -0.32901 -0.1062 -0.16117 -0.036555 0.0012179 0.24726 -0.21921 1.4479 0.001772 0.1081 0.1462 -0.057066 -0.19064 0.35561 -0.1517 -0.34055 -0.061303 -0.0075173 -0.041152 0.25334 -0.0019539 0.22376 0.1064 -0.08986 0.19911 0.0081138 0.055364 0.23995 -0.097748 -0.28898 -0.064418 0.10805 0.0034839 0.29608 0.061481 -0.17359 0.17187 -0.03069 -0.097694 -0.035225 -0.48112 -0.12728 -0.23369 -0.15173 0.15157 0.22711 -0.17253 -0.36233 -0.052013 0.05168 0.28767 -0.17898 0.090809 0.26055 0.10536 -0.13877 -0.078825 -0.12009 -0.11057 -0.26334 0.25118 0.46861 -0.30987 0.049465 0.012019 0.22798 0.2026 -0.12339 -0.75853 -0.12086 0.094925 -0.098451 -0.22636 -0.16295 -0.48378 -0.28369 -0.23611 -0.012328 0.014826 -0.082364 0.21207 0.17078 0.17054 -1.6187 -0.30249 0.4607 0.11142 -0.57287 -0.0072446 0.02421 0.21557 -0.097572 0.25266 -0.27105 0.24162 -0.048775 -0.079457 -0.12569 0.10153 0.031135 -0.029391 0.011497 0.1687 0.092708 -0.55139 0.33635 -0.0042698
air 0.3094 0.073576 -0.0054402 -0.46208 -0.098605 0.0046868 0.15073 0.76621 0.061041 -2.2458 0.24907 -0.35597 -0.094291 -0.5786 0.21353 1.0732 0.11313 -0.011154 0.017315 0.11781 0.055417 -0.051889 0.12899 0.30443 -0.060514 0.14334 -0.10439 0.11269 -0.16631 0.022291 0.33195 -0.6396 -0.1653 -0.014884 -0.23856 -0.34081 -0.5036 -0.15515 0.063709 0.49528 -0.38486 0.12804 0.2277 0.30953 0.56874 -0.25103 0.28954 0.28245 0.51883 -0.78793 0.11652 -0.84433 -0.020893 0.074806 -0.10257 0.27964 0.36349 0.39495 0.47863 -0.11891 -0.55475 -0.2757 0.9953 -0.4896 -0.50059 0.45429 0.11054 0.32527 0.18736 0.28819 0.3158 -0.68811 0.13233 0.032597 -0.54445 0.69221 0.15097 0.40582 -0.38058 -0.36863 -0.20278 -0.36484 0.14795 0.063602 -0.30539 0.013399 -0.030525 -0.1872 -0.45915 -0.027856 -0.044922 0.36195 -0.19271 -0.1567 -0.02702 -0.05734 -0.60126 0.3741 -0.17943 0.79359 -0.038221 -0.37084 0.26228 0.033047 0.334 -0.20448 -0.5741 0.24854 0.015001 0.38035 -0.050765 -0.24398 -0.09866 -0.21408 -0.81752 -0.10007 -0.2841 0.44566 -0.65914 -0.95594 -0.11774 -0.31794 -0.039462 -0.86341 -0.67762 0.12059 -0.35563 -0.26709 0.00033953 -0.24744 -0.1249 0.41272 0.040857 -0.41454 0.34271 -0.44729 -0.1876 0.36323 0.074666 0.27338 0.010647 0.4665 -0.024619 0.42059 -0.95485 0.33283 0.24622 0.41365 -0.064577 0.62583 1.188 -0.4473 0.11876 -0.39167 1.2361 -0.16737 0.19358 0.050434 0.02518 0.16889 0.12294 -0.39283 0.15334 0.030009 0.60508 -0.37475 -0.27983 0.4633 0.12648 0.66857 0.14464 0.63818 -0.04096 0.53663 -0.44373 0.78669 0.24586 -0.20201 -0.13322 -0.034369 0.050116 0.061431 0.2442 0.51181 -0.028723 0.10276 0.16733 0.03796 -0.26187 0.046335 0.33279 0.16351 -0.40238 -0.4449 0.011152 -0.19165 0.31243 0.38117 -0.43549 0.4455 0.84132 -0.12996 0.0058092 -0.55781 0.50751 0.49562 -0.1314 -0.000411 -0.055732 0.065737 -0.60321 -0.04607 -0.31549 0.23791 -0.042107 -0.77685 0.34723 -0.25773 -0.25596 0.11503 0.89318 0.23853 0.28129 -0.19789 -0.56942 0.54022 0.16045 -0.34494 0.43695 -0.47392 0.56704 -0.64596 0.41716 -0.093653 0.30395 -0.1721 0.23652 -0.21024 -0.52611 0.21567 -0.16856 0.056455 0.12262 -0.26473 0.32632 -0.39467 -0.17213 -0.58013 -0.030622 -0.36697 -0.42822 -0.61741 0.32955 -0.21144 0.38817 -0.021345 -0.19966 0.17781 -0.19781 -0.23408 0.70578 -0.92381 -0.042292 -0.017288 0.29083 -0.17415 -0.059279 0.43468 0.4592 0.22869 0.88578 0.52625 -0.26087 0.12066 -0.10085 -0.11159 -1.9013 -0.28235 0.0095677 0.1837 -0.91638 0.12063 0.53838 0.070401 0.30547 0.12198 -0.03248 0.35384 -0.23236 -0.20467 -0.51735 0.57441 -0.49928 -0.2798 0.0035776 0.44918 -0.16894 -0.44745 -0.67724 -0.28249
all -0.069921 0.18417 0.21716 -0.44034 -0.21262 0.34661 -0.24908 -0.015273 0.10706 -1.7828 -0.037549 0.084879 -0.012382 0.14754 0.034363 -0.22358 -0.44423 0.12665 -0.21727 -0.023571 0.30622 0.47855 0.33898 0.034607 -0.2115 0.20483 -0.36781 0.2669 0.019795 -0.077462 0.12694 0.2073 -0.15944 -0.2019 -1.2009 -0.1788 0.29447 0.16362 -0.097022 0.162 -0.23117 -0.37698 -0.21721 0.07269 0.2529 0.36146 0.3725 0.31383 -0.15461 0.0034654 0.048235 -0.11092 0.1253 -0.1734 -0.29375 0.21792 0.11533 0.33814 -0.077217 -0.2285 0.31916 0.0080468 0.036504 0.202 -0.14205 -0.3985 0.29782 0.37078 -0.182 0.13612 0.13602 -0.19563 -0.056857 0.022413 0.058271 0.057193 0.21192 0.3346 -0.21114 -0.064978 -0.11533 -0.39171 0.52593 0.2317 -0.25374 0.18877 -0.014642 0.017711 0.002822 0.3429 -0.5533 -0.028927 -0.062785 -0.092553 -0.086038 0.1281 -0.53253 0.053453 0.18092 -0.15443 0.28186 0.19882 0.031923 -0.34185 -0.20378 -0.0037391 0.2156 0.017693 -0.48228 0.1522 -0.042513 -0.6346 -0.14159 -0.09958 -0.12867 0.20188 -0.35534 0.36185 -0.010278 -0.035855 -0.14061 -0.25005 0.14851 0.4378 -0.18007 -0.077005 -0.46705 0.52601 0.033343 0.18123 -0.0099816 -0.098441 0.37391 -0.13732 -0.24703 0.085044 0.089049 -0.10667 -0.18821 0.17067 -0.043602 0.15031 0.30368 0.2581 -0.29038 -0.015766 0.16708 -0.093066 0.06041 -0.11056 0.25245 -0.18231 -0.003038 0.14067 0.68458 -0.056951 -0.42414 -0.23911 0.29806 -0.27583 0.37104 -0.27013 -0.19573 0.13592 -0.53096 0.31573 0.38015 0.27695 0.038209 0.074975 0.13917 0.14236 -0.47801 0.45062 -0.12709 -0.071096 0.14426 -0.0087371 -0.049221 0.36488 0.16423 0.14078 0.33909 -0.09131 -0.17886 0.0097016 -0.023435 -0.3021 0.1844 0.1104 -0.20982 -0.33454 -0.012952 -0.21675 0.34742 -0.17872 -0.11091 0.22442 0.25168 -0.2412 0.91888 -0.26661 -0.080785 0.095768 0.27655 -0.12294 0.1026 0.11873 0.25775 -0.61796 -0.33046 0.027845 -0.17084 0.074386 0.12841 -0.015643 0.23054 0.30548 0.28305 0.14772 0.057531 -0.18437 0.036638 -0.25078 0.086015 0.050845 0.24875 0.21582 -0.0449 -0.18651 -0.23697 -0.047749 0.14238 -0.38042 0.1032 0.26185 0.25796 -0.0053802 -0.35123 0.21708 -0.066855 0.2904 0.34474 0.57912 -0.54926 -0.12152 0.05994 0.27635 -0.041498 0.026863 0.050554 -0.17068 0.097786 -0.054084 0.057854 -0.075177 -0.11217 -0.25058 -0.060601 -0.032245 0.20766 -0.19979 0.83766 0.11126 0.017299 0.24293 -0.13678 -0.16067 0.13032 0.38967 0.10341 -0.22105 0.069578 0.597 -0.1602 0.25745 -2.5062 -0.067305 0.56257 0.0082338 -0.035082 -0.090387 -0.12249 0.27091 -0.11791 0.34392 -0.21011 0.19069 0.18809 -0.28536 -0.18426 -0.4774 0.055496 -0.016676 0.06399 0.0022548 0.10616 -0.56671 -0.092404 -0.22507
along -0.1452 0.070706 -0.015256 -0.0399 -0.56579 0.15501 -0.18107 -0.13757 0.38562 -1.2632 -0.3472 -0.19711 -0.42506 0.12092 0.26988 0.27749 -0.40858 0.016833 0.29392 0.33278 -0.14233 0.061012 -0.019393 -0.13519 -0.49285 -0.1287 0.11899 -0.042975 -0.37041 0.24469 0.30195 0.33895 0.061472 0.37947 -0.19208 0.086405 0.13597 -0.19417 -0.018373 -0.10072 -0.44512 -0.49998 -0.17658 0.24537 0.14906 0.36859 0.74323 0.34012 -0.0032628 0.062604 -0.1752 -0.21429 0.19427 -0.18517 0.22555 0.023919 -0.072494 0.0042537 -0.068186 0.13567 0.35961 0.35598 0.65131 -0.059946 0.22416 0.087007 -0.10647 0.4093 -0.051357 0.039953 -0.016071 -0.20817 -0.088353 -0.0074142 -0.075477 -0.060753 0.14425 0.041788 0.07395 -0.22994 0.032305 -0.12139 0.19046 -0.16225 -0.026255 -0.15267 -0.26865 0.14371 0.32563 -0.24634 0.17183 0.41855 0.25087 -0.091706 -0.23415 0.37564 -0.11081 -0.32736 0.28376 -0.17681 0.016718 0.36901 0.15573 -0.13844 -0.24492 0.15514 0.40578 -0.071676 0.054738 -0.22852 -0.17219 -0.66245 -0.010603 -0.19922 -0.30078 0.79671 0.066415 0.084061 -0.13053 -0.13998 0.069103 -0.21363 -0.14254 -0.19015 0.14945 0.33109 -0.15041 -0.26447 0.011839 0.13971 -0.45425 0.050289 0.19129 -0.1478 0.054856 -0.046808 0.3453 -0.13388 0.056699 0.040372 -0.1397 0.023559 -0.18934 0.41991 -0.4381 0.26637 0.28415 -0.18577 -0.43577 -0.14995 0.55493 0.26767 -0.023839 0.069975 0.73236 -0.061749 0.14394 0.025064 0.16289 0.3672 -0.065546 -0.13791 0.01128 0.01114 -0.51604 0.059344 0.21568 0.1226 -0.32015 0.27402 -0.065325 -0.33253 -0.13448 0.0061843 -0.29228 0.035276 -0.15863 0.024859 -0.093454 -0.1469 -0.17763 0.12484 -0.091124 0.41785 0.28583 -0.41492 -0.36217 -0.039469 -0.025782 -0.0072954 -0.099794 0.30522 -0.43242 -0.22563 -0.27241 0.12838 0.070455 -0.54241 0.29007 0.0043682 1.1058 0.11592 0.2855 0.2839 0.27864 0.18877 0.11667 0.048071 0.37502 0.084884 0.21235 -0.0035288 0.33892 -0.18851 0.12655 0.23842 -0.057902 0.095373 0.11045 -0.23812 0.70121 -0.46687 -0.31229 -0.31016 0.25064 0.58608 0.30117 -0.16962 0.0053383 -0.25138 -0.39131 0.060701 -0.17998 -0.27973 0.49353 0.063616 -0.22199 -0.018403 -0.13996 -0.1104 -0.11226 0.42076 0.43589 0.10308 -0.56804 -0.22126 0.49164 0.18365 0.11467 0.081898 0.18613 -0.39086 0.10231 0.22947 0.56964 -0.10387 0.09388 -0.080757 -0.090588 0.39221 0.20963 -0.13313 0.46376 -0.1603 -0.11186 -0.3894 -0.20152 -0.2619 3.997e-06 -0.059037 -0.014287 -0.3269 -0.18413 0.44557 0.075478 0.27758 -1.7031 -0.12233 0.28796 0.24082 0.18172 0.20292 0.1405 -0.14267 -0.29831 0.3424 0.46695 -0.28244 0.12977 -0.17138 0.51453 -0.051598 -0.22748 0.22046 -0.58694 0.53773 0.14539 -0.014504 0.018861 -0.25556
an -0.3206 0.43316 -0.086867 0.3012 -0.093775 -0.40917 -0.15555 -0.58325 0.10448 -1.8751 0.2632 0.92436 -0.33671 -0.32778 -0.19915 0.45252 -0.13183 0.079381 -0.52029 -0.33858 -0.3236 -0.040944 0.036592 0.42529 -0.31243 -0.28441 0.27039 -0.38031 -0.093811 -0.025755 -0.18603 0.45818 -0.11981 -0.03091 -0.94794 0.55102 -0.05506 0.063427 0.029357 -0.00076901 0.14945 -0.113 0.21653 -0.0085671 0.003186 0.50103 0.21949 0.14201 0.099095 0.32477 0.18296 0.14016 0.19619 0.31511 0.17642 -0.094133 0.04665 0.77427 0.6384 0.024217 -0.33 -0.41038 0.38621 -0.30211 -0.46205 0.23557 -0.037225 -0.27766 0.28038 0.021848 -0.26779 0.261 0.32146 -0.40527 -0.52073 0.16252 0.03488 0.10489 0.051569 0.67749 -0.03799 -0.025248 0.15725 0.23438 0.31182 -0.47074 -0.083725 0.1805 0.56405 0.10283 -0.88294 0.33582 -0.27446 -0.19049 -0.098401 0.047875 -0.46173 -0.13767 -0.036128 -0.58537 -0.22401 -0.066153 -0.33961 0.21452 0.51551 -0.49999 0.042133 -0.16655 0.48073 -0.34118 0.44931 0.12628 0.022758 -0.5648 0.28353 -0.047511 -0.50203 -0.094817 0.0076021 -0.0077772 -0.13131 0.13047 -0.18606 0.18597 0.20676 -0.6867 -0.3139 -0.094359 -0.28518 -0.056476 0.21843 0.026956 0.37599 -0.2581 -0.14416 0.32094 0.28526 0.3722 -0.35918 0.43606 -0.088326 0.27997 -0.19234 0.14719 -0.87043 -0.20506 -0.09181 -0.27906 -0.52548 0.15167 1.0015 -0.10799 0.22341 -0.16862 0.71699 0.67758 0.48418 0.19668 0.26088 -0.49971 0.39304 0.042966 -0.11208 -0.18421 0.030814 0.24557 0.27253 0.36097 0.26108 -0.33802 -0.16883 -0.030034 -0.46792 -0.23907 0.21304 -0.073874 -0.17915 0.14934 -0.29886 0.27956 0.32463 -0.019793 0.2813 -0.015994 0.34337 -0.66998 -0.61052 -0.14137 -0.14339 0.55656 -0.32891 0.47079 0.059951 -0.12595 -0.17341 -0.26619 -0.22351 -0.15192 -0.19034 0.27389 0.78274 -0.013422 -0.14292 0.21847 0.47447 0.6319 -0.44274 0.4948 0.28208 0.26082 0.10407 -0.16377 0.29526 0.25114 0.3264 -0.14681 -0.3585 0.53189 -0.67914 0.40352 0.64385 -0.019447 -0.45252 0.12031 -0.34787 0.097858 -0.35536 -0.24464 -0.065478 0.10168 0.34521 0.61504 -0.23692 0.0090674 0.085536 -0.12369 0.14267 0.084555 -0.22177 0.54217 0.3386 0.21989 -0.05362 0.46204 -0.63713 -0.098304 0.58685 -0.60991 0.041921 -0.58178 0.26416 -0.16138 -0.095059 -0.63283 0.56709 -0.10508 -0.44483 -0.49922 0.65411 -0.35616 -0.2276 -0.12221 0.17631 0.3517 0.034375 0.25853 0.17654 0.53004 0.47453 -0.065811 0.16031 0.47197 -0.038603 -0.58078 -0.10398 -0.44823 -2.1964 0.33904 0.34559 0.16329 -0.15579 -0.26621 0.058887 -0.24142 0.02541 0.36071 -0.10925 0.68371 -0.20463 0.10928 -0.16413 -0.25815 0.025781 0.24324 0.36691 0.33582 0.4056 0.045966 -0.67693 -0.13018
and 0.038466 -0.039792 0.082747 -0.38923 -0.21431 0.1702 -0.025657 0.09578 0.2386 -1.6342 0.14332 -0.037958 -0.019583 0.38494 0.097319 0.29697 -0.34523 0.11742 -0.024189 0.16013 0.09824 0.12811 -0.17482 0.20976 -0.22362 -0.20656 0.24428 0.066875 -0.12594 -0.015706 0.064986 0.4754 -0.055405 0.54286 -0.75188 -0.083218 0.17896 0.073084 -0.3033 -0.17416 -0.17147 -0.1192 0.038308 -0.2066 0.088679 -0.055993 0.361 0.38658 -0.055434 0.097699 0.3686 -0.326 0.13023 -0.29897 -0.24709 0.051869 0.030422 0.18586 -0.046117 -0.14765 0.35895 0.10094 -0.087822 -0.17514 -0.25403 -0.35855 0.15801 -0.027074 0.12565 -0.17509 -0.13126 -0.13916 0.053628 -0.049429 0.051938 -0.048684 0.071719 0.080952 -0.20018 -0.10871 -0.26707 -0.35727 0.3712 0.016709 -0.034959 -0.047711 0.0024827 0.10847 0.0089053 -0.14874 0.046014 0.42702 -0.24684 0.12193 -0.27579 0.25844 -0.20991 -0.086667 0.14767 -0.17441 0.17054 -0.30868 -0.08797 -0.17195 -0.11743 0.12146 0.069268 0.13311 -0.13565 -0.24855 -0.0026393 -0.71169 -0.32594 -0.36397 0.053331 0.35714 -0.30035 0.041583 -0.11996 -0.02368 0.016728 0.15869 -0.16491 -0.2782 -0.13788 0.10178 -0.24177 0.096347 0.2367 0.20885 -0.28867 0.10772 0.15562 -0.012284 -0.22161 -0.1017 0.1257 -0.29579 -0.0089604 0.35075 0.020088 0.020389 0.0038884 0.31869 -0.19848 0.060458 0.28148 -0.23499 -0.17035 -0.22323 0.57975 0.26464 -0.10124 0.081058 0.14029 0.066431 -0.12212 0.040034 0.027548 -0.1476 0.31438 -0.23046 0.2645 -0.10945 -0.39033 0.1266 -0.030951 0.067389 0.16807 0.22373 0.13502 0.38235 -0.52807 0.54013 -0.043062 0.093211 0.045211 -0.24291 -0.49781 0.26425 0.0264 0.14347 0.11763 -0.011614 0.097932 -0.26632 -0.22143 0.25156 0.08128 0.10937 -0.12199 0.019255 -0.33463 -0.18181 0.064724 0.22921 -0.032425 -0.27295 0.31983 0.16134 0.93692 -0.1214 -0.012617 0.25274 0.24615 0.13214 0.16092 0.20576 -0.051567 -0.3784 0.19761 0.16993 -0.087151 0.026922 0.38035 0.083349 0.24715 -0.1094 0.15459 -0.051741 0.16604 -0.21335 -0.030744 -0.14574 -0.50462 0.34825 -0.12343 0.17733 0.2857 -0.30467 -0.15095 0.30346 -0.15678 0.064804 -0.073008 0.26499 0.16312 0.11889 -0.63938 0.15598 -0.23643 0.59644 0.38748 0.3358 -0.58647 0.12584 0.36144 -0.33622 0.38128 -0.10348 0.18825 -0.33686 0.0058178 -0.1345 0.55511 -0.056443 0.15094 -0.28438 0.025488 0.20392 0.052712 -0.45719 0.089267 0.095469 -0.19022 -0.17101 -0.37599 -0.182 -0.065605 -0.061388 -0.19467 -0.070368 -0.23977 0.39253 -0.21283 0.17221 -1.867 -0.22609 0.53976 -0.3358 -0.48587 -0.050246 0.31694 -0.15536 0.12244 0.38356 -0.1389 0.41886 0.23664 -0.31113 0.045194 -0.20405 -0.21097 -0.11025 0.021766 0.44129 0.32797 -0.33427 0.011807 0.059703
another -0.26208 0.25254 -0.087172 -0.11106 -0.081596 -0.32127 -0.16947 -0.20684 -0.07723 -1.1337 0.16587 0.031301 -0.023928 -0.022191 0.3487 0.15685 -0.32918 0.010718 -0.017447 -0.10453 -0.40451 0.063186 0.11368 0.22799 -0.11285 -0.35317 0.10617 0.00024244 0.023772 -0.10006 -0.37203 0.28639 0.00086571 -0.11525 -0.96719 0.3278 -0.11474 0.095223 -0.024527 0.43995 0.59544 -0.27252 0.089533 0.097794 -0.027986 0.071063 0.2214 0.0026801 -0.43253 0.11399 -0.1908 -0.18567 0.0047868 0.39052 -0.14239 -0.04914 -0.18063 0.36291 0.17305 -0.17865 -0.3011 0.13768 0.41852 -0.16934 -0.18824 -0.092717 -0.057793 -0.17774 0.30223 0.00066296 -0.18784 0.21511 0.025566 -0.19518 -0.25448 0.06139 -0.081235 -0.11326 -0.38843 0.2282 -0.10407 0.032926 0.10783 0.092789 0.20616 -0.087922 -0.21549 0.28525 0.23464 -0.13975 -0.11889 0.41059 -0.19134 -0.32984 0.35939 0.044723 -0.22501 -0.052884 0.22133 -0.24492 -0.10443 0.18063 0.20046 -0.047006 0.31299 -0.061339 0.10105 -0.24737 -0.28676 0.04925 -0.16717 0.18617 -0.11882 0.0022981 0.32632 0.42355 -0.23336 0.17097 0.1604 -0.048734 -0.054144 0.19072 -0.14122 0.35536 -0.078843 -0.31324 0.19215 -0.0058856 0.32195 -0.34949 0.25982 0.26638 -0.023439 -0.082901 -0.061239 0.097243 0.045238 -0.18825 0.12264 0.27291 -0.23805 0.12315 -0.07011 0.36085 -0.90791 0.01365 0.13041 0.26421 -0.23679 0.1429 0.47359 -0.019672 0.16163 -0.0486 0.35725 0.025188 -0.041061 0.066362 -0.23128 0.27194 0.067583 -0.14978 0.021901 -0.038238 0.083783 0.16029 0.047565 0.37047 0.28468 0.029938 0.044538 -0.3929 -0.61125 -0.10914 -0.1039 -0.011554 -0.1482 0.058612 0.072941 0.2254 0.27665 0.065201 0.039082 0.15967 -0.066285 -0.35364 -0.52986 0.26983 -0.040669 0.32231 0.082223 0.048769 0.10592 0.15025 -0.037124 -0.15496 -0.19034 -0.3877 -0.16015 0.21263 1.0932 -0.14789 0.068527 -0.28384 -0.11892 0.2339 -0.28752 0.098609 -0.15279 0.20781 -0.11256 -0.26569 0.39319 0.034128 0.2225 -0.091556 0.0065728 0.15371 -0.14081 0.48623 0.20148 0.14656 -0.13577 0.62243 0.23064 -0.1102 0.28331 -0.26789 -0.13849 0.16203 -0.03938 0.40146 -0.27375 -0.12613 0.48125 0.22964 0.22565 0.074913 0.11837 0.040552 0.34838 0.040061 0.045967 -0.34592 -0.5503 0.076641 0.52793 0.015245 -0.0051151 -0.21457 -0.21343 0.010514 -0.23012 -0.17857 0.74659 0.10743 -0.12902 -0.086736 0.33017 0.30207 0.13951 -0.070713 0.28168 0.16117 -0.055799 0.0056213 -0.14203 0.23339 0.44313 -0.22011 0.24648 -0.28173 0.091187 -0.020144 0.11027 -0.14315 -2.2975 -0.24862 0.27495 0.39192 -0.29811 0.2493 0.14036 -0.29114 0.069318 0.10338 0.01781 0.043407 -0.096937 0.23137 -0.069329 -0.1387 0.10931 0.0050539 0.34366 0.056864 0.043462 -0.077523 -0.38754 0.16038
ashore -0.12116 -0.43006 -0.45917 0.091757 -0.5605 -0.22253 -0.025993 0.034512 0.50851 -0.085467 0.51485 0.0075816 -0.02661 -0.36686 -0.50874 -0.10422 0.47166 -0.27411 -0.4555 0.40839 0.25311 0.16685 0.067426 -0.59823 -0.043216 -0.075555 0.17419 1.2315 0.12306 0.61035 -0.19288 0.044441 -0.30876 0.32803 0.21302 0.076353 0.45938 0.46155 0.44373 0.23783 -0.1949 -0.42343 0.24003 -0.46563 -0.080971 0.80077 1.2798 -0.034095 0.24862 0.55962 -0.72276 0.37119 0.10749 -0.47147 -0.21477 -0.1555 0.12111 0.54178 -0.50431 0.54937 0.10028 0.21218 0.84619 0.33301 0.14856 -0.76078 -0.52678 0.11824 -0.20788 0.028047 -0.20692 -0.07594 -0.46381 -0.42422 -0.23135 -0.30038 0.25587 0.30511 0.35792 -0.17511 -0.090128 -0.59868 -0.52845 0.60138 -0.19038 -0.16759 -0.70536 0.15175 0.18503 -0.26699 0.24552 0.059624 0.26006 -0.0030024 -0.065418 0.078846 -0.30174 0.18784 0.13365 0.34874 0.19628 0.83275 -0.035585 0.46571 0.38702 -0.022983 -0.071044 -0.48216 0.029121 0.37005 0.16109 -0.086998 -0.14037 -0.33324 -0.58377 0.60006 0.4269 -0.10371 0.33889 -0.0056921 -0.14317 -0.51538 -0.2839 0.66242 0.21955 0.42215 -0.10593 -0.15138 0.7244 0.046577 -0.40518 0.2555 0.55406 -0.00378 -0.21102 0.52819 0.023896 -0.38885 0.49396 0.054264 -0.28399 0.020083 0.30102 0.73288 -0.79911 -0.56081 0.15134 0.10855 -0.36787 0.095267 0.32259 -0.24418 0.3603 -0.37763 0.36864 -0.16129 0.65546 -0.55903 0.17903 0.43889 -0.13461 -0.61963 0.057808 0.22017 0.13249 -0.35574 0.6621 0.18592 -0.019892 0.4509 0.031541 0.13935 0.58022 -0.57969 0.1947 -0.24591 -0.36149 -0.16625 0.20041 0.051343 0.44293 0.16676 0.64708 0.11451 0.6501 -0.089621 -0.2993 0.37963 0.22795 -0.56305 -0.30773 0.36714 -0.27213 -0.17567 0.6545 0.41646 0.064459 0.54704 -0.26809 -0.77964 0.19182 0.19078 -0.1193 0.056451 0.09771 0.6017 0.25055 -0.068284 -0.43336 0.23186 -0.57085 0.40199 -0.37753 0.32794 0.55422 -0.16958 0.27554 -0.30689 -0.030243 -0.12501 1.2288 0.21629 0.26518 -0.15179 -0.34554 -0.31014 0.042679 -0.91144 0.54244 -0.10204 0.93775 0.23138 -0.33085 -0.3309 0.505 -0.31054 -0.019122 -0.13157 0.33998 -0.23962 -0.16753 0.12793 -0.33132 -0.11459 0.036633 -0.45199 0.43314 0.47528 -0.49785 0.56338 -0.30061 0.20831 0.084175 0.39837 0.38236 -0.54183 0.25576 0.20893 -0.32602 0.30118 -0.24865 0.022869 -0.82454 -0.37475 -0.036654 -0.48377 -0.48575 -0.87454 -0.59172 -0.0029332 -0.032198 -0.46258 -0.39929 0.26281 -0.36361 0.23514 -1.036 0.20562 -0.6791 -0.19162 -0.14977 0.24495 0.36608 0.21685 -0.21759 -0.19644 0.027004 0.078334 -0.030455 0.19714 -0.43158 -0.17951 0.60403 -1.0743 -0.28576 0.24622 -0.37738 0.032613 0.29548 -0.081089
at -0.36898 0.89703 0.34799 -0.062829 0.18046 -0.30297 0.36079 -0.013702 0.38434 -1.3094 -0.034387 0.44917 0.3595 0.2285 -0.020975 0.52298 -0.010276 0.031896 -0.39106 -0.26092 -0.12071 -0.39632 0.48307 -0.24715 -0.33466 0.82662 0.40893 0.23376 0.14166 0.16645 0.29483 -0.37072 0.086861 0.85512 -0.96862 -0.060721 -0.10459 0.25023 0.1443 -0.044215 0.26425 0.090472 -0.1924 0.53454 -0.19893 0.29252 -0.14821 0.3647 -0.15732 0.35149 -0.088094 -0.51938 0.014036 -0.253 0.043116 0.52396 -0.049139 0.4477 0.42077 -0.099867 0.28466 -0.50907 0.35615 0.18749 0.10728 -0.94786 0.30243 0.09016 0.0275 -0.46412 0.083445 0.051873 0.38449 -0.32305 -0.41284 0.12662 0.075448 -0.23403 -0.225 -0.63415 0.068452 -0.242 -0.15779 0.40198 0.01398 0.21473 0.080972 -0.24846 0.21473 0.1913 0.44364 -0.34204 -0.41926 -0.36012 -0.064189 -0.44009 -0.30557 -0.23704 -0.60487 -0.80597 0.12056 -0.13482 -0.084581 0.31442 0.020139 -0.37096 0.54883 0.40115 -0.13108 0.23612 -0.75966 -0.68541 0.13096 -0.33278 -0.10399 -0.059151 -0.054399 0.30094 -0.14817 -0.1803 -0.80154 0.028031 0.13747 -0.08332 -0.62372 0.0050644 0.041693 0.051753 0.12868 -0.090503 0.18826 0.23278 0.1448 -0.17176 -0.89621 -0.31087 0.27205 0.09358 0.38752 0.58611 -0.21142 -0.24285 0.18183 0.045134 -0.29076 -0.22093 0.22947 -0.36386 -0.19905 0.28131 0.57719 -0.18532 0.088198 -0.41232 0.10831 -0.034759 0.049272 -0.1429 -0.22444 -0.07402 0.1195 -0.16175 -0.24432 -0.30433 -0.02257 0.2643 -0.39734 -0.40645 0.55845 0.040802 0.057204 -0.20152 0.19397 -0.35354 -0.30364 0.2892 0.24984 -0.14747 -0.1503 0.51406 0.19113 0.26175 0.074331 -0.344 0.76389 0.13674 -0.29977 -0.30743 -0.086823 0.14204 0.19967 0.1175 0.1893 -0.51309 -0.26945 -0.24101 0.19673 -0.57289 -0.037942 -0.32936 1.2201 0.053738 -0.14808 -0.3089 0.10369 0.23965 -0.07021 0.11557 -0.076919 -0.73347 0.40517 -0.034934 0.28078 -0.018267 -0.22082 0.30758 0.0039613 0.15186 -0.29581 0.46255 0.45045 -0.061989 -0.0034168 0.19992 -0.85036 -0.27323 -0.085744 -0.19099 -0.23377 0.2781 0.72788 -0.017063 0.25973 -0.42443 0.47659 -0.098488 0.30542 0.35615 0.23935 0.77525 -0.76448 0.41737 0.42735 -0.071282 -0.62078 -0.34451 -0.18773 -0.32441 -0.27686 0.13415 0.36958 0.38632 -0.45414 -0.090775 0.26914 -0.030115 -0.48913 -0.51441 -0.30659 -0.029388 0.24909 -0.30728 0.070761 -0.22533 -0.038602 0.18488 0.67662 0.6891 0.15932 0.044091 -0.72046 -0.56721 0.30884 0.016838 -0.0073805 -0.26673 -2.0087 0.040844 0.14903 0.25294 -0.5787 -0.24225 0.40704 -0.84739 -0.075729 0.32128 -0.59618 -0.013321 -0.29407 -0.3433 -0.27595 -0.61138 -0.58463 -0.12572 0.42321 -0.011227 0.39072 -0.39875 -0.82992 0.1757
away -0.13801 -0.14036 -0.26103 0.29113 0.015192 -0.50972 0.031108 0.41421 0.47966 -1.3798 0.47188 -0.2097 0.047679 -0.37557 -0.25208 0.083966 -0.26903 -0.25468 0.52365 0.3328 0.28829 -0.17291 0.23909 -0.053225 -0.10761 -0.26458 -0.28623 0.26 -0.31161 -0.12382 0.25851 0.16757 -0.004274 -0.29977 -1.1477 0.090582 -0.31014 0.32765 -0.22405 -0.31612 0.31128 -0.14014 -0.12512 -0.15475 0.20768 0.39693 0.43064 0.050448 0.11543 0.099822 -0.018372 -0.19565 -0.0055337 -0.27462 0.059263 -0.0086811 -0.060596 -0.28738 -0.23158 0.30003 0.16884 0.55108 0.33866 0.50759 0.30722 -0.41529 -0.023184 -0.074527 0.2488 -0.76277 0.082259 -0.42751 0.032612 0.1509 0.44428 0.17264 0.055056 -0.35206 0.083037 -0.27046 -0.057634 -0.052223 0.036052 0.11942 -0.30392 -0.36594 -0.13192 -0.030738 0.46335 0.057165 0.21167 0.070666 -0.13651 -0.11444 0.37995 -0.40637 -0.29435 -0.10376 0.25062 -0.37245 0.19067 0.11005 0.012527 -0.0099683 -0.036347 -0.23632 0.22565 -0.10799 -0.22928 0.35108 -0.13039 -0.40708 -0.24646 -0.19638 -0.099712 0.46241 0.11915 0.050223 -0.01914 -0.64539 -0.21317 -0.32889 -0.14836 0.26534 0.21405 0.29694 0.19681 -0.076819 -0.041391 -0.21428 0.15165 -0.062651 0.4612 0.038861 0.19916 0.33187 0.68381 -0.018308 0.025366 -0.063989 -0.11542 -0.043714 0.015304 0.55566 -0.90734 -0.17141 0.28808 0.30534 -0.2715 -0.14829 0.37767 0.42538 -0.17464 0.044216 0.33106 0.045211 0.27974 -0.0031113 0.064049 0.016914 -0.0014458 -0.51349 -0.016519 -0.42558 0.4549 -0.27984 -0.039588 0.13592 0.11901 -0.027626 -0.29591 -0.20845 -0.22197 -0.1049 -0.029267 -0.29192 0.10218 0.55801 0.029383 0.39859 -0.071678 -0.13831 0.20815 0.018762 0.090144 -0.079923 0.044786 -0.12987 0.54054 -0.058272 0.0077468 0.21082 0.11893 -0.16437 0.36707 -0.062184 -0.28082 -0.43699 0.33174 -0.042567 1.4969 -0.30757 -0.035565 0.13005 0.0079951 -0.42749 0.19901 -0.61742 0.087161 0.17837 -0.3255 -0.28788 -0.38955 0.32735 0.72669 0.33907 0.2448 0.18644 -0.13536 0.037895 0.44708 -0.10054 -0.11346 -0.083734 -0.080409 -0.20727 0.48616 -0.27895 0.089614 -0.13446 0.41261 0.041975 0.0027028 -0.33383 0.1526 -0.18528 0.1097 0.0062426 -0.048133 -0.070468 0.3369 -0.069328 -0.11616 0.0052 -0.82242 -0.090138 0.31394 0.35752 -0.27844 0.23214 0.02705 -0.32033 0.087782 -0.099635 0.59917 -0.091144 -0.2242 -0.46737 -0.78424 -0.066901 0.11974 -0.39011 -0.04526 0.3532 0.21391 0.13849 -0.011875 -0.35968 0.098824 0.28429 -0.00014409 -0.03682 -0.48575 -0.22809 -0.022002 -0.42089 -2.165 -0.37763 -0.097569 -0.23401 -0.22898 0.54159 0.041897 -0.14238 -0.048503 0.43646 0.14676 -0.033717 0.36052 0.086557 -0.077748 0.22971 0.34199 0.12873 0.04698 -0.067858 -0.058606 -0.36674 0.032979 0.045931
back -0.086391 -0.22758 -0.20898 0.083948 0.076879 -0.41442 -0.194 -0.44586 0.29542 -1.4481 0.015504 -0.19822 0.41627 -0.29119 -0.33198 0.43763 -0.23853 0.27759 0.061156 0.13066 -0.029226 0.076101 0.4001 -0.10735 -0.10929 -0.22802 0.22901 -0.05674 -0.073445 0.18794 -0.063117 0.14517 0.1489 -0.10139 -1.3872 -0.28879 -0.0092647 0.006794 -0.17888 0.06662 -0.15764 -0.59384 -0.27468 -0.42453 0.17471 0.26752 0.33424 -0.013472 -0.37384 0.010053 0.013884 -0.29215 -0.083389 -0.09861 -0.070145 -0.078248 0.32038 0.26038 -0.44208 0.094125 0.041634 0.18076 0.15694 0.051838 -0.18246 -0.5575 -0.086053 -0.026316 0.81033 -0.6309 0.12456 -0.3827 -0.18838 0.32585 0.33433 0.0062693 0.0062786 -0.10397 0.04196 -0.26383 -0.10126 0.12456 0.3458 0.064398 0.13651 0.19246 -0.070118 0.41798 0.098255 -0.13892 0.34494 0.27641 -0.18552 -0.19313 -0.38243 -0.26071 -0.44563 -0.018509 0.22958 -0.30268 0.050631 -0.0031633 0.13415 0.44501 -0.045063 -0.13847 0.0854 -0.09845 -0.26042 0.50982 -0.049082 -0.30061 -0.53401 -0.5069 -0.222 0.21978 -0.35962 0.082534 -0.034167 -0.71119 -0.053851 -0.23332 -0.12343 0.091612 0.027331 0.22579 0.17607 -0.054793 0.075485 -0.032443 0.13218 0.30301 0.23273 -0.12181 0.027842 -0.20647 0.50106 -0.091204 -0.20269 0.080667 -0.099009 -0.20235 0.084183 0.49831 -0.69755 -0.10048 -0.28225 0.097473 -0.28583 -0.018629 0.23831 0.074644 -0.13567 -0.011467 0.46584 0.13619 -0.16507 -0.43254 0.25845 0.20265 0.072948 -0.52285 -0.19621 -0.36126 0.33965 0.0063998 0.11924 0.051192 -0.088373 0.31672 -0.50075 0.28915 -0.26349 0.042466 -0.048295 0.021935 -0.41741 0.42562 0.045291 0.40342 -0.122 0.14435 0.37098 0.18808 -0.037884 -0.15513 -0.36996 0.19571 0.52716 0.041548 -0.27861 0.38626 0.23496 -0.028198 0.013562 -0.045439 -0.098731 0.049203 0.32636 0.21722 1.8215 -0.020578 0.18168 0.38317 0.13524 -0.12237 -0.297 -0.11526 -0.23642 0.043323 -0.060726 -0.16037 -0.10212 0.23463 0.35494 0.40627 0.15461 -0.026932 -0.11224 0.0024237 0.67625 -0.052202 -0.25536 0.024356 -0.020826 0.11452 0.27938 0.252 0.076121 -0.24448 -0.12825 -0.30527 0.094691 -0.17864 0.15986 -0.019981 0.0044247 -0.14255 -0.082913 -0.048852 0.12277 -0.079595 0.26936 0.17469 -0.4925 -0.38666 0.34 0.20356 -0.35651 0.2694 -0.041865 -0.10704 -0.046134 -0.082796 0.51085 0.0073293 -0.044125 -0.12277 -0.3038 0.021143 0.018526 -0.16518 0.41472 0.43398 -0.065841 0.020031 -0.0733 -0.26088 -0.37578 0.22729 -0.2041 -0.049885 0.041459 0.17303 0.14309 -0.47074 -2.0006 0.014332 0.40926 0.062935 -0.45088 0.33215 0.067974 0.17638 -0.21242 0.10288 0.12412 0.028181 -0.059856 -0.27387 0.30675 -0.0039141 0.32959 0.11591 0.23719 0.12614 -0.10489 -0.36071 0.33145 0.032172
bear 0.086177 0.054755 -0.44714 -0.022551 0.31183 0.032818 -0.1387 0.96572 0.4888 -0.75099 -0.093661 -0.1336 -0.26967 0.55778 0.37184 -0.064235 -0.12886 -0.56015 -0.064247 -0.04161 0.25533 -0.21695 0.55944 0.48287 -0.19714 0.071537 0.03649 -0.33761 0.16172 -0.018566 -0.0043925 0.056882 0.0011434 -0.63518 -0.63945 -0.37049 -0.057871 0.29946 -0.21265 -0.14464 -0.62084 -0.59919 0.14505 -0.056854 -0.65216 0.23424 -0.16002 -0.13723 0.42255 0.029473 0.40331 -0.43748 0.015834 -0.20973 0.20679 0.7093 0.19593 0.52424 0.29056 0.0074849 0.10345 -0.16943 0.25786 -0.26626 -0.19976 -0.11185 -0.56724 -0.42329 -0.3765 -0.23901 -0.29483 0.37444 -0.52309 -0.15593 -0.11413 0.019484 0.26711 0.057639 0.31101 -0.37802 0.31136 0.07225 -0.020555 -0.43391 0.75394 0.012868 0.050244 0.24589 -0.15259 0.015661 -0.10038 -0.39596 -0.37438 0.1895 -0.41529 0.3433 0.00052799 -0.32638 -0.36392 0.29913 0.34003 0.39086 -0.043513 0.11121 -0.11696 0.4289 0.1319 -0.016068 0.69789 0.51215 -0.43074 0.43994 -0.40824 0.045821 0.33181 0.15766 -0.24087 0.24838 0.28098 -0.041602 -0.33382 -0.44646 0.22765 0.42093 0.02171 -0.072948 -0.45207 0.14919 -0.049597 -0.80394 -0.10511 0.13964 0.17542 0.40328 -0.18582 0.17392 -0.16662 0.42739 0.18718 -0.34434 0.42817 -0.13119 0.14407 0.33895 0.12115 -0.093308 0.20792 0.31744 0.1549 0.39081 -0.25048 0.93391 -0.18456 -0.60641 0.68932 0.18998 0.3024 -0.42275 -0.56295 0.87063 0.63141 0.35814 0.45692 -0.19333 -0.5555 0.33449 0.70025 0.55328 -0.2277 -0.42977 -0.029074 -0.21067 -0.040413 0.19193 0.13761 -0.48582 0.31657 -0.15511 -0.095555 -0.1836 0.46821 -0.27362 -0.17751 -0.15138 -0.056687 -0.055984 -0.043698 -0.36201 0.18331 0.043327 0.38919 -0.4632 -0.28213 -0.12515 -0.53886 -0.41216 0.45824 -0.091527 0.11683 0.2362 1.3584 -0.4163 0.40883 -0.34517 0.050401 0.25273 -0.41 0.69973 -0.0296 -0.041195 0.11202 -0.49028 0.010992 -0.48199 0.43843 -0.51231 0.39979 0.60083 -0.40575 -0.045183 -0.24098 0.41361 -0.14578 -0.20145 -0.084186 -0.2331 0.30997 0.066423 0.30231 -0.12041 -0.51375 -0.2107 -0.40638 -0.23156 -0.40672 0.4184 -0.32911 -0.83878 0.10276 0.29788 -0.24293 0.61889 0.54026 -0.12752 -1.1992 -0.29751 -0.21392 -0.53084 -0.33414 -0.26834 -0.051812 0.34437 -0.40659 0.04144 0.64159 0.2142 -0.36101 -0.035513 -0.078942 -0.048973 0.010626 0.092643 0.042826 0.036211 -0.4253 0.25897 0.42135 -0.0092855 0.044883 0.33648 -0.46076 0.24866 -0.096073 0.26531 -0.0072007 -0.6796 -1.3896 -0.27316 0.034969 -0.20169 -0.1349 0.24364 -0.080494 -0.24458 -0.59143 0.13549 0.054295 0.058038 0.72197 -0.62493 -0.23878 -0.14983 0.29795 -0.5429 -0.2496 -0.019161 0.229 0.53021 0.35338 -0.074899
bears -0.094632 0.65775 -0.74218 0.35093 0.011329 0.2561 -0.37818 0.53544 0.24206 0.086966 -0.021461 0.18254 -0.20825 0.27201 0.35251 -0.034135 0.00015307 -0.59275 -0.6776 -0.70154 -0.19347 0.039597 0.30644 0.55947 0.18189 -0.23846 -0.33321 -0.25361 -0.1547 -0.52577 0.47726 0.18788 -0.62781 -0.4093 -0.74197 -0.49654 0.050572 0.36836 -0.2504 -0.85947 -0.19705 -0.21495 0.12997 -0.10968 -0.77584 -0.06452 -0.086056 -0.41352 0.18123 0.19681 0.027445 0.097329 -0.14196 -0.14091 0.11339 0.35621 0.56387 0.38931 0.26485 -0.3862 -0.25661 0.16819 -0.01698 -0.56394 -0.18245 -0.095171 -0.45669 -0.15531 0.1047 -0.035977 0.04357 0.30314 -0.36016 -0.15411 -0.24028 -0.050626 0.46502 0.10344 0.1577 -7.1628e-06 -0.16964 0.022599 -0.38844 -0.19005 0.28041 -0.088859 0.15377 -0.078456 -0.0094734 0.30422 0.29498 -0.07339 -0.20162 0.24995 -0.43669 0.16247 0.1941 -0.7005 -0.36259 -0.32864 0.31655 0.14646 0.065901 0.30781 -0.60339 0.41271 0.46739 -0.052027 0.28961 0.5228 -0.11903 0.32434 -0.62792 0.23434 0.59208 0.33203 -0.33711 0.39853 0.65884 -0.039845 0.020531 -0.40753 0.22811 0.19712 -0.16391 -0.4982 -0.49182 0.010939 0.00096073 -0.52353 -0.55472 0.1418 0.18466 0.096765 0.12894 0.2552 0.42852 0.46982 0.44594 -0.050311 0.19474 -0.023982 -0.39533 0.21215 -0.016342 -0.22008 0.34971 0.036858 -0.079729 0.034889 -0.23232 -0.17194 -0.46857 -0.90905 0.80046 -0.078915 0.15258 -0.54476 -0.065237 0.58965 0.0029607 0.54146 0.48947 -0.27738 -0.24051 0.1765 0.076499 0.52579 -0.23759 -0.48078 0.31495 -0.76498 -0.43315 0.11109 0.19801 0.17475 0.1014 0.075909 -0.0083531 -0.77394 0.16317 -0.12152 -0.17713 -0.33865 -0.08902 -0.36088 0.14522 -0.033587 0.125 0.14381 0.30107 -0.011005 -0.10693 -0.12318 -0.41996 -0.38268 0.3014 0.38329 0.45197 0.70394 1.4327 -0.1673 0.31563 -0.40896 0.34584 -0.086798 -0.38849 -0.48088 -0.031228 0.18976 0.44652 0.079718 0.093888 0.064573 0.19673 -0.82639 0.34575 0.29477 -0.49143 -0.51465 0.057432 0.34131 -0.47426 0.10083 -0.082703 -0.44588 0.26613 0.36983 0.20671 0.01381 0.099282 -0.22511 0.0016407 -0.31372 -0.83808 0.053165 -0.082627 -0.58481 0.14314 0.65197 -0.021565 0.23205 0.60106 -0.066771 -0.9224 -0.21218 0.062258 -0.36543 -0.055342 -6.0031e-05 0.17258 0.19886 -0.1709 0.47442 0.71478 0.66824 0.020658 0.071252 -0.023036 -0.33479 -0.45908 -0.092846 0.13713 0.095473 -0.33984 0.33711 0.057623 -0.066018 0.21581 0.24254 -0.41619 0.07547 -0.035662 0.13042 -0.03887 -0.38244 -1.2085 -0.20621 0.14162 0.26835 -0.31451 0.22954 -0.046919 0.10862 -0.64293 0.072923 -0.13469 0.08591 0.76904 -0.32918 0.026943 0.78989 0.15218 -0.29929 0.3686 -0.27537 0.018818 -0.050507 0.22463 -0.18599
being -0.088188 0.2534 0.0548 -0.17882 -0.099654 0.14449 0.24377 0.3517 -0.10752 -1.8811 0.45701 -0.51236 0.16099 0.040084 -0.26315 0.1925 -0.41019 -0.1159 -0.080419 -0.55 -0.061139 0.25029 -0.021779 0.13512 -0.27761 0.19697 -0.24451 -0.16793 0.043621 0.49476 -0.057207 0.20279 -0.31633 -0.15529 -0.66733 0.16456 -0.019904 -0.053669 0.0045439 0.059718 -0.3615 -0.3953 -0.1203 -0.14209 0.1256 0.50905 -0.058768 0.26036 0.030376 0.2025 -0.119 -0.4026 0.088005 0.17488 -0.1577 0.00036083 0.18771 -0.0083966 0.38898 -0.2239 0.1599 0.21508 0.052131 0.22974 -0.46374 -0.4185 0.094932 -0.2362 -0.082583 0.12835 0.029087 0.09878 0.1357 -0.030194 0.0056129 0.11179 0.63862 0.57566 0.016359 0.21128 -0.38507 0.088871 0.12619 0.13496 0.046676 -0.061789 -0.16222 0.23618 0.308 0.27177 -0.24124 0.14681 -0.015928 0.3355 0.040413 0.029045 -0.014221 0.45659 0.23354 -0.35772 0.26359 -0.27311 0.167 -0.12897 0.22271 0.40842 0.22902 0.26318 -0.24818 0.29537 -0.15745 0.088227 -0.072662 -0.27292 0.032421 -0.16379 0.027674 -0.35204 -0.0024881 -0.42848 -0.11889 -0.34311 -0.56091 -0.020679 0.24408 0.091687 -0.25221 -0.14151 0.17357 -0.060941 0.10118 0.13956 0.17661 0.097881 -0.72623 -0.057076 0.28673 -0.31353 -0.22759 0.050082 -0.020896 0.33815 -0.2833 0.36448 -0.28066 -0.27236 0.57215 0.2647 -0.23124 -0.22027 0.58536 -0.37067 -0.049646 0.45788 0.055047 -0.28326 0.045779 0.12912 0.26854 0.24249 -0.24896 -0.25329 -0.0095965 -0.0080368 0.4479 -0.23475 -0.025161 0.090273 0.44057 -0.054943 0.29429 -0.14389 -0.61834 -0.022228 0.13085 0.16035 -0.02508 0.36564 0.10171 0.42231 0.033922 -0.060552 0.042838 0.1055 -0.0024173 -0.27552 -0.43641 0.024232 0.69434 0.051659 0.28842 -0.01035 0.23869 -0.19742 -0.12643 -0.47257 -0.52565 -0.40913 0.22686 -0.2268 0.6342 -0.26007 -0.21255 -0.38456 0.44775 0.036553 0.13059 0.23278 0.23952 -0.012564 0.29702 0.0086206 -0.40529 0.095547 0.38813 0.29014 0.23626 0.36422 0.22281 0.44058 0.051791 0.012203 0.14933 -0.464 0.29205 0.15972 0.28367 -0.19009 -0.30554 -0.088382 0.38359 -0.27247 -0.16816 -0.30804 0.18241 -0.026335 -0.026467 0.18024 -0.42095 0.44131 -0.21235 0.076191 0.24079 0.13436 -0.89313 -0.063548 0.71139 0.34224 0.45395 0.3643 0.16866 -0.1825 -0.54614 0.12968 0.4012 -0.13706 -0.048442 -0.33186 -0.067979 -0.072135 -0.36285 -0.13709 -0.28482 0.31887 -0.25854 -0.024281 0.076613 -0.046317 0.13172 0.074697 0.045235 -0.52498 0.12694 0.04721 -0.15578 0.41078 -2.3299 -0.43275 0.18027 0.12495 -0.58327 0.16652 -0.082084 0.1174 -0.06148 0.40468 0.040469 -0.2043 -0.019548 -0.314 0.20557 -0.36562 0.049187 0.020619 -0.018383 0.28802 0.1427 -0.58055 -0.31003 -0.16767
big 0.053202 0.32654 -0.01127 -0.082123 0.071037 0.44781 0.044859 0.4138 -0.27196 -0.89759 -0.13761 0.13004 -0.075357 0.38629 0.17758 -0.29943 -0.19235 -0.30964 0.32962 0.086086 0.52474 0.63456 0.48114 0.41667 -0.26752 0.28658 -0.026327 -0.54687 0.19495 -0.17815 -0.39229 -0.0904 -0.34012 0.2212 -1.6101 0.38802 -0.24336 -0.1756 -0.20712 0.20394 -0.025578 -0.45187 0.33415 0.27383 -0.39909 0.16407 0.46706 -0.44217 -0.084489 0.25391 0.59938 0.11946 -0.10521 -0.14147 -0.45396 0.26155 -0.56754 0.15196 0.31752 -0.021125 0.30054 -0.088797 -0.092661 0.12387 0.2305 -0.012303 -0.059526 0.1079 -0.068127 -0.029459 -0.0077968 0.41705 -0.1004 0.12982 -0.013223 -0.11526 -0.065731 0.054774 0.020605 -0.52391 -0.089419 0.051287 0.21643 -0.31757 0.62864 0.30463 0.011931 0.30312 -0.048976 -0.5659 0.23477 0.28488 -0.24284 -0.11837 -0.22553 -0.14001 -0.19238 -0.2248 -0.061711 -0.23125 -0.079984 0.12241 -0.36515 -0.22947 0.0078941 0.14803 -0.12649 0.028246 -0.41702 -0.11158 -0.4991 -0.56353 -0.46138 -0.018227 0.55521 0.078952 0.14393 0.37751 0.04695 -0.5343 0.11517 -0.2723 0.22937 0.17617 0.31728 -0.078928 -0.0055615 0.14917 -0.17789 -0.30649 0.29659 0.47704 -0.55835 0.035082 0.17096 -0.25288 0.05156 -0.056329 0.04223 0.038741 -0.080193 0.13952 0.70648 0.11988 -0.3275 -0.0087163 0.10524 0.31645 -0.071287 0.22948 0.15596 0.36893 -0.21014 -0.029139 0.46407 -0.078003 0.12458 -0.069225 -0.58424 -0.078226 0.082829 0.18654 0.17078 0.16484 -0.12538 0.014431 0.044243 0.24854 -0.012925 0.0042898 0.083215 -0.20077 -0.72477 -0.20139 0.041344 -0.097364 -0.081314 0.056293 0.37262 0.4256 0.45101 0.074838 0.46719 0.139 -0.18487 -0.22201 -0.06436 0.091974 0.11689 -0.23366 0.12914 0.12386 -0.129 -0.044109 0.39721 -0.061978 0.038883 0.11275 0.37979 0.13575 1.8973 -0.29059 0.072478 -0.22316 -0.42648 -0.12234 -0.30966 0.4026 0.018576 -0.44676 -0.64271 0.1612 -0.096531 -0.066292 0.28503 0.28944 0.20129 0.38182 0.086765 -0.32541 0.22295 0.057072 0.24878 -0.016025 0.14448 -0.05527 -0.10185 0.13745 0.015056 -0.050501 0.078285 -0.10455 -0.32698 -0.21523 0.069816 0.10553 0.15315 0.0013057 -0.026675 -0.18643 0.25311 0.20835 0.050941 -0.076221 -1.174 -0.53818 -0.20022 0.18137 0.028364 -0.32037 -0.010306 -0.13441 -0.15794 0.052013 0.13071 -0.18834 -0.34213 -0.15006 -0.36625 0.051873 0.26475 -0.33269 0.53389 0.37694 0.29248 -0.26069 -0.29506 -0.27485 0.26808 0.54107 0.20729 -0.25498 -0.23753 -0.06964 0.12649 -0.052191 -1.9453 0.19465 -0.30956 0.14595 -0.55976 0.58851 0.0029796 0.53247 -0.11014 0.10197 -0.19553 -0.051859 0.37775 -0.20514 0.067855 0.10475 -0.048275 0.15864 -0.0042757 0.18459 0.0096166 -0.39005 -0.1441 0.42055
black -0.086825 0.036227 0.46572 -0.37567 -0.38478 -0.13635 0.029258 0.24192 -0.074205 -0.58889 0.18656 0.11574 0.12297 0.47277 0.057567 0.0055512 0.19645 0.13084 -0.27641 -0.2111 -0.26682 0.15479 0.49475 0.16682 -0.3599 -0.52817 0.50594 0.22501 -0.54257 0.17608 0.10541 0.15563 -0.88648 -0.057818 -0.87272 0.43009 -0.12413 0.15605 0.20306 0.28875 0.10657 -0.2657 -0.13978 0.073435 0.40391 -0.46762 -0.1359 -0.042211 -0.36747 -0.27328 0.42457 -0.063086 0.13557 -0.052828 -0.29505 0.06267 -0.3397 -0.28208 0.22318 -0.33587 -0.3467 -0.34361 0.52057 0.001214 0.021841 -0.58852 -0.026687 -0.021355 0.39422 -0.1383 0.45983 -0.4422 -0.28787 -0.3382 -0.19807 -0.11296 0.072706 0.20471 0.39059 -0.40228 0.0051335 -0.23077 0.37933 -0.41384 0.22939 -0.21594 0.51277 0.11294 -0.17049 0.094362 -0.4777 -0.38551 0.162 0.34217 -0.13432 0.090053 0.4118 0.51635 0.3832 -0.49207 0.50702 0.32133 0.045134 -0.48606 -0.22431 0.072857 0.61363 0.11343 -0.23228 -0.44638 0.16317 0.53952 0.082504 -0.29944 0.21191 0.024048 0.072866 0.32232 -0.081944 -0.71354 -0.22644 -0.23213 0.11976 -0.22497 -0.043035 0.16361 0.12498 0.57965 0.34461 -0.21389 -0.48776 -0.31363 -0.037673 0.085819 0.023679 -0.054634 -0.64764 0.53163 -0.089289 0.12052 0.41388 0.080534 -0.21855 -0.10749 0.041428 0.10819 0.038213 -0.14516 0.25032 0.43419 0.52055 0.13547 0.27243 -0.36589 0.61276 0.052527 0.15247 -0.88126 0.29377 0.01651 -0.1813 -0.25649 0.24431 0.25805 -0.59096 -0.48691 -0.55553 0.67436 -0.1032 -0.59864 0.70564 0.042308 -0.65878 0.37361 0.23997 -0.7528 -0.54161 0.32926 -0.0021018 0.31838 0.11102 0.71755 0.48677 -0.019367 0.049462 -0.78151 0.17722 0.33303 -0.36914 0.022928 0.042332 0.23998 0.21219 0.48437 0.57693 -0.00469 0.18041 -0.32227 0.020047 -0.51123 1.5963 -0.38556 0.064036 -0.45507 0.11343 -0.26422 0.28224 0.27955 -0.14801 0.27713 0.43781 -0.35238 -0.14416 0.043359 0.65212 0.0035042 1.38 -0.079047 0.31797 -0.46718 0.43374 0.30798 0.25061 -0.324 0.19469 -0.45274 -0.11809 -0.20506 -0.34345 -0.30416 0.21237 -0.38271 -0.30232 0.46214 -0.06153 0.26629 0.19691 -0.0064713 -0.75065 -0.078398 -0.20391 0.39792 -0.1082 -0.04407 -0.76149 0.13622 0.46195 -0.55866 0.2512 -0.14804 -0.3163 0.11041 -0.17622 -0.085051 0.67703 -0.019308 -0.37167 0.15784 0.36217 -0.25741 0.33679 0.32747 0.44275 -0.098982 -0.32169 -0.23243 -0.070403 0.15559 -0.78529 0.85591 -0.26368 0.1193 -0.015978 -0.16371 -0.78735 0.3368 -1.724 0.7489 0.15055 0.014572 -0.51839 0.13419 0.066424 -0.19361 -0.32172 0.71812 -0.2661 0.48796 0.037026 -0.2361 -0.07855 -0.60675 -0.52821 0.87722 -0.72705 0.26274 0.25088 0.067862 0.026733 0.22466
bread 0.42445 0.44214 0.37833 -0.069403 -0.073338 -0.081135 -0.05778 0.16375 -0.099045 -0.81689 -0.43912 -0.49712 -0.50495 0.7461 0.3235 -0.69495 -0.1999 0.085718 0.10033 0.059362 -0.043522 0.050225 -0.22728 -0.049659 0.52579 -0.13038 0.11082 -0.0057026 -0.40167 -0.3036 -0.35504 0.56465 -0.42691 0.095305 -0.89807 0.17838 -0.029647 -0.12109 -0.13524 0.40596 0.15597 -0.84324 0.51727 -0.16569 -0.11147 0.077322 0.26823 0.057215 -0.14571 0.23168 0.91794 0.1811 0.44626 0.84291 -0.31894 -0.2061 -0.30366 0.004545 0.030833 0.17034 0.31111 0.12178 0.10801 0.079893 -0.6787 0.084787 -0.54224 0.15838 -0.31336 0.12879 0.61677 -0.053287 -0.38343 -0.23622 0.0044497 0.15173 0.51785 -0.1134 -0.62595 0.035095 0.12547 0.55694 0.0516 0.084038 -0.084851 -0.44193 -0.46435 0.36741 -0.18654 0.35828 0.22893 -0.79797 0.10891 0.06156 -0.24384 -0.25632 0.66075 0.5229 -0.36168 0.64644 0.19634 0.12448 -0.036928 -0.90867 -0.2809 -0.10382 0.071498 0.38807 -0.83083 0.12252 0.43179 0.6598 0.045086 -0.65377 -0.39691 -0.087969 -0.47148 0.35059 0.7041 -0.095982 -0.27671 -0.29434 0.49031 0.35662 0.027702 -0.28642 0.31566 0.52438 -0.26317 0.82059 0.079012 0.47513 0.33365 0.80164 0.02697 -0.33415 -0.11803 0.79641 -0.16587 0.35163 0.70061 0.3594 -0.59517 -0.12043 -0.2431 0.49752 -0.56054 -0.13813 0.37624 -0.36406 -0.6373 0.47533 0.6436 -0.18634 -0.57421 0.16739 -0.017222 -0.55154 -0.091627 0.016359 0.0061148 0.03225 -0.30872 0.23839 -0.65339 0.31146 -0.24672 -0.27882 0.29894 -0.53132 -0.38324 0.089359 -0.55348 0.21007 -0.66274 0.32096 -0.29175 -0.14105 0.28332 -0.36122 0.36751 0.3396 -0.17525 -0.60833 0.10298 0.076038 0.75504 0.21259 0.09432 0.16234 0.099649 1.3594 -0.13559 -0.31186 -0.12121 -0.076561 -0.67664 -0.87163 0.069186 0.23584 0.35178 -0.58653 1.0506 0.71578 -0.051279 -0.72173 0.55031 -0.18321 -0.32433 -0.19722 -0.2113 0.083221 -0.20574 -0.14087 -0.20222 0.11095 0.49119 -0.52435 -0.022425 0.031873 0.51452 0.61741 -0.13014 -0.24343 -0.35477 -0.67115 0.24245 0.20685 0.58625 0.0068439 0.15637 0.041758 -0.38749 0.11132 0.88754 0.78523 -0.070434 0.11205 -0.94238 -0.10418 -0.47953 -0.041931 -0.20347 -0.47242 -0.70558 -0.18668 -0.14411 0.41065 0.11432 -0.92061 0.73638 -0.03184 0.15837 0.26361 0.45361 0.81415 -0.51708 -0.26918 0.52441 0.5451 0.083457 -0.45577 -0.17756 -0.7336 0.69229 -0.39894 -0.41863 0.057051 0.25049 0.13108 -0.73782 0.45018 0.11531 0.76584 0.34869 0.015328 -1.1598 -0.22353 -0.93814 -0.5111 0.072843 -0.30214 -0.16632 -0.31374 0.059688 0.65073 0.92893 -0.60864 0.28643 0.54603 -0.14123 -0.34933 0.27734 0.30589 -0.0049341 -0.1702 -0.43026 0.023264 -0.26448 0.4634
bugs -0.65942 0.26514 0.1663 -0.034885 -0.094974 0.26062 -0.28947 -0.13681 0.69558 -0.39373 0.40674 0.26487 0.63838 -0.35323 -0.12737 0.19105 0.27518 -0.24223 0.25788 0.54952 0.12345 0.49755 0.36301 -0.072981 0.10843 -0.3051 -0.32909 -0.098708 0.1119 0.048181 -0.30861 0.14499 -0.31334 -0.086687 -0.014011 -0.033452 -0.42318 0.27934 -0.45193 -0.035248 0.17379 -0.11306 0.1104 0.17614 -0.086355 -0.1878 0.079728 -0.66351 -0.36007 -0.39785 0.44242 -0.046424 -0.40589 -0.32201 -0.2412 0.43174 -0.24049 -0.31344 0.64849 -0.18629 0.44695 0.1286 -0.232 0.44598 -0.37116 0.079995 0.84598 0.25035 0.021043 0.13078 -0.46201 0.85556 -0.46407 0.090465 -0.53524 -0.86715 -0.25732 -0.03039 0.25737 -0.34736 0.10018 -0.20982 0.30073 0.075989 -0.12631 0.62187 0.11376 -0.4248 0.17527 -0.31903 -0.099495 0.43998 0.4769 0.30561 -0.095793 0.10695 -0.66165 -0.30602 0.26757 -0.90303 0.17027 0.22529 -0.16016 -0.38668 -0.096036 0.087142 -0.60004 -0.39043 -0.45763 -0.30457 0.1872 0.45392 -0.81543 0.11689 0.12108 -0.16495 -0.45343 0.46747 -0.053017 -0.18221 -0.35743 -0.44601 -0.13957 -0.048344 -0.60942 -0.094376 -0.060538 1.1016 0.67772 0.070904 -0.18738 -0.096776 0.55015 0.72778 -0.35458 -0.70662 0.68546 0.08562 0.19876 -0.49245 -0.07736 0.13594 -0.48113 -0.034467 -0.14883 -0.14618 -0.38556 -0.43065 -0.3695 -0.34413 -0.58117 0.09733 -0.81812 0.32736 0.21111 -0.35637 0.17787 0.03124 0.36792 -0.38035 0.060201 -0.12386 0.31829 0.32251 0.39169 0.24306 -0.13869 0.80778 0.13954 -0.26836 -0.32154 0.012519 0.55765 0.47035 -0.5 0.095319 0.39334 -0.0035577 -0.18864 -0.43109 0.081581 -0.22717 0.0035337 -0.25358 0.12194 0.072836 0.66733 0.17165 0.57704 -0.18365 -0.035874 0.47207 -1.246 -0.17344 -0.14289 0.11986 -0.22934 -0.030544 -0.032723 -0.56435 0.19021 0.75242 -0.12852 0.21 0.26747 -0.021925 -0.46811 -0.74285 -0.33543 -0.23123 -0.34859 -0.28936 0.37202 -0.51338 0.72171 -0.083089 0.036202 0.52348 0.12258 0.041509 -0.5965 0.11834 0.053053 -0.11027 0.14151 -0.74118 -0.34675 0.32814 0.19347 0.0053617 0.086421 0.23367 -0.21019 -0.29371 0.2246 0.070891 0.46959 -0.10317 0.15805 0.22267 0.17838 0.038434 -0.42836 0.036157 -0.62407 -0.59079 -0.28769 -0.0094834 -0.8042 -0.30236 0.046164 0.47952 -0.71349 0.43383 0.85507 0.079197 0.40323 -0.088925 0.60077 -0.31877 -0.14249 -0.36587 0.28213 -0.45712 -0.22867 0.16345 0.3444 -0.56838 -0.3977 1.0179 0.64461 -0.016382 -1.01 0.43263 -0.42357 0.035337 -1.0016 -0.34042 -0.566 -0.44423 -0.81502 0.3683 0.4643 0.48158 -0.34552 -0.029285 0.59757 -0.13534 -0.051093 -0.89064 -0.2398 -0.013587 0.33044 0.45027 -0.77511 -0.75744 0.13193 0.29086 0.051578 -0.44335
bushes -0.71394 0.54999 0.019882 0.35306 -0.52003 0.15655 0.10549 0.337 0.46874 0.17461 -0.024817 0.45162 0.070408 -0.4595 -0.28294 0.011825 -0.4369 -0.48626 0.10813 0.32674 -0.32935 0.33881 -0.30157 -0.36239 -0.15316 -0.58262 -0.12742 -0.051039 0.00046508 0.58264 0.23836 -0.095858 0.083703 -0.084392 -0.022616 -0.2349 -0.25001 -0.55057 -0.039406 0.024551 0.20978 -0.30099 -0.089682 -0.45789 0.39967 -0.18226 0.45454 0.36595 0.14246 0.13907 -0.086559 -0.13924 -0.090795 -0.51988 -0.60195 -0.1265 -0.49067 -0.40039 0.050908 0.10561 0.40315 0.19607 0.26588 0.67528 0.38383 -0.25233 0.27228 0.79136 -0.48813 -0.35686 -0.53626 0.2383 -0.59811 0.055999 -0.32462 -0.20268 0.02791 -0.38787 0.58733 0.01493 -0.30338 0.50568 0.65267 -0.24739 0.12469 0.1698 -0.14173 0.15998 -0.19896 -0.47637 0.18019 -0.4854 0.20885 0.49012 0.29164 -0.45053 0.27417 -0.037383 -0.23577 -0.29621 -0.11277 0.1311 -0.92385 0.40351 -0.4897 -0.077284 -0.079355 0.22561 -0.14829 0.04987 0.0030663 -0.084012 0.3604 0.089901 0.51989 0.73304 -0.085161 0.11224 0.10659 0.036799 -0.71592 -0.38433 -0.12158 0.048905 -0.32018 -0.28893 -0.034545 0.12677 0.42377 -0.16707 -0.22038 0.79317 0.22723 0.43013 -0.47113 -0.093346 0.0066493 -0.13164 0.082197 -0.40029 0.0831 -0.021652 -0.22729 -0.35583 -0.42413 0.50289 -0.049524 -0.66619 -0.13568 -0.1808 -0.47368 0.057781 -0.21286 0.40927 -0.39522 -0.4075 0.44861 -0.22647 1.2394 0.45196 -0.011031 -0.097454 -0.13839 0.3074 -0.51285 0.10415 0.22676 0.2463 -0.20834 -0.46004 -0.12591 -0.23531 0.14342 0.19436 -0.26817 -0.015407 0.3128 0.55988 0.56362 -0.53129 0.44266 -0.013138 0.17712 -0.22128 0.010659 0.16336 1.016 0.099705 0.42365 -0.19142 -0.5688 -0.16071 0.07066 -0.67721 0.099013 0.22227 0.24444 0.48278 -0.10314 0.25916 0.18764 -0.25064 0.090352 0.52068 0.14893 -0.5499 0.29079 -0.46433 -0.036053 -0.39557 0.24468 -0.15939 -0.14081 -0.43892 0.12365 -0.13669 0.30307 -0.046425 0.35832 0.039703 1.1363 -0.19092 -0.13856 0.26289 -0.50097 0.37233 0.058802 0.60104 -0.42352 -0.06707 -0.22946 0.13405 -0.22719 0.45466 -0.63523 0.045049 -0.25873 -0.01189 -0.096483 -0.10022 -0.098388 0.0099472 -0.30127 0.25511 -0.6658 -0.16215 1.1025 -0.12386 0.041906 -0.23576 0.51115 -0.19237 0.41817 -1.1181 0.42573 0.27889 0.51208 0.45973 -0.19416 -0.13414 0.75635 0.64241 0.25297 -0.23656 0.17959 -0.27147 -0.10259 -0.088864 0.62771 0.024748 0.060885 -0.42809 -0.24327 -0.041419 -0.55201 -0.059702 -0.70621 0.22275 -0.42967 0.0093024 -0.69021 -0.18263 0.231 -0.53456 -0.53091 0.71897 0.62807 0.085643 0.18845 -0.14066 0.90448 0.58509 0.83471 -0.042881 -0.013513 -0.31656 -0.018354 0.7467 0.36788 0.68585
by 0.073515 0.25736 0.2359 0.19299 -0.29611 0.24525 0.28196 0.17337 0.17596 -1.9064 0.41646 -0.52247 0.28941 -0.14978 -0.045958 0.39363 -0.23868 0.065956 -0.017976 -0.15156 -0.10554 0.09882 0.21012 0.4942 0.44034 0.027245 -0.077807 -0.35717 -0.1256 0.08476 0.50556 0.054257 -0.049079 -0.068589 -0.69315 -0.34462 -0.15513 -0.073613 0.5586 0.24185 -0.31465 0.13847 0.0025406 0.0052615 -0.40145 0.31973 -0.29493 0.38723 0.086896 -0.13209 0.10077 0.013552 -0.040737 0.31749 -2.6474e-05 -0.086115 -0.19889 -0.065909 0.013141 -0.072675 0.24637 0.43593 0.23431 0.086261 -0.37592 -0.66076 -0.012271 -0.15227 -0.098466 -0.26475 0.43849 0.3462 0.28853 0.040032 -0.24846 0.0085505 0.61328 0.039159 -0.19772 -0.14917 -0.11404 0.46025 -0.060377 0.60515 0.3268 7.2101e-05 -0.41491 0.10186 0.60502 -0.10644 -0.0087886 0.19556 0.070595 0.11943 0.092743 -0.36545 0.063256 0.4423 0.28424 0.03232 0.37466 -0.075733 0.23567 -0.84699 -0.33139 -0.040734 -0.19888 -0.34039 -0.023971 -0.063015 -0.00058644 0.2512 -0.13327 -0.037927 0.31385 -0.12567 -0.18847 -0.25316 -0.036028 -0.73398 -0.49541 -0.075148 -0.5534 -0.68447 0.35731 -0.13375 -0.36663 -0.26612 -0.093091 0.086657 -0.1902 0.42224 -0.056448 0.32949 -0.17215 0.10682 0.44173 -0.19415 -0.42698 -0.2524 -0.33396 0.21947 -0.13877 0.10471 -0.19507 -0.057186 0.3158 0.1781 0.43675 -0.5629 1.2033 -0.12076 0.21367 0.14463 0.26866 0.1701 0.1822 0.6998 0.12953 -0.49064 -0.39844 -0.31507 0.44036 0.13683 0.23924 -0.072965 0.15785 0.17379 0.3316 -0.098831 0.38722 -0.087708 -0.83964 0.061454 -0.22821 -0.20698 -0.41644 0.42207 -0.11298 0.57636 0.096123 -0.053306 0.072136 0.016467 -0.50124 -0.20919 -0.78268 -0.15733 0.19663 0.31394 -0.29398 -0.35535 -0.272 -0.27381 -0.15854 -0.26515 0.22173 0.029352 0.27527 -0.28788 0.41057 0.021832 -0.059982 -0.52844 0.096363 -0.063465 -0.68393 0.019234 -0.10542 -0.60288 -0.3536 -0.045796 0.034367 0.015802 0.36933 0.20176 0.52654 0.35583 -0.27888 0.14355 0.52356 -0.46602 -0.2268 -0.33025 0.22143 0.439 0.64856 0.0097532 -0.13655 -0.55993 0.47595 0.44607 -0.35533 -0.024964 -0.30214 -0.35801 0.11952 0.24708 -0.32789 0.039514 -0.34741 0.053936 -0.13111 0.036739 -1.1423 0.27762 -0.0087727 -0.1718 0.12229 0.093731 0.45065 -0.42148 -0.034918 -0.37208 0.69774 -0.48293 0.26336 -0.027733 0.2968 -0.041623 -0.27315 -0.022401 -0.099488 0.17685 -0.15643 -0.1242 -0.4011 0.2362 -0.28566 -0.46947 -0.34107 -0.57982 0.19944 -0.24136 -0.20699 0.52195 -1.8485 -0.56025 0.23756 0.29337 0.0049889 0.14013 -0.33396 -0.13643 -0.13913 0.38038 -0.14755 -0.39899 0.2267 0.034484 0.27171 -0.85545 -0.14255 0.47836 -0.055087 1.0448 0.1562 -0.40107 -0.56824 -0.46862
called 0.071212 0.34482 0.042018 -0.21353 0.27438 -0.36478 0.068598 0.12788 -0.17623 -1.4858 0.14149 -0.29868 -0.45143 -0.1662 0.64834 0.55414 -0.19902 0.23997 0.16692 0.28311 -0.061816 0.20752 0.038369 0.2318 -0.12094 0.090388 0.12044 -0.34173 0.071155 0.24928 0.0048822 0.38594 0.019618 0.35647 -0.58172 0.38246 0.27845 0.2476 -0.27166 0.097205 -0.23122 0.4322 -0.091842 0.18487 -0.11345 0.042693 -0.081925 -0.058788 -0.28565 -0.23203 -0.081494 0.042009 -0.17488 0.22904 -0.10876 -0.0063252 -0.56939 0.45937 0.4696 -0.35549 0.08038 -0.033283 0.36796 -0.061439 -0.14518 -0.1722 0.1264 0.27686 -0.098116 -0.067825 -0.071427 0.092027 0.27515 -0.10381 -0.22603 0.10825 0.12238 -0.13426 -0.13899 -0.10284 0.046017 -0.020178 0.43217 -0.10864 0.39934 0.20278 -0.012825 0.84846 0.083358 -0.40557 -0.46438 0.19489 0.17575 -0.026772 -0.098965 0.16841 -0.099917 0.13146 0.35039 -0.27317 0.47746 -0.074607 0.25032 0.45504 0.30575 0.061645 -0.12756 -0.060523 0.20227 -0.082633 0.10999 0.19035 0.033326 0.35581 0.31022 -0.23948 -0.17714 -0.40031 -0.25705 -0.23886 0.45822 -0.44084 0.10222 -0.22583 0.31305 -0.1446 -0.035448 0.35696 -0.038452 0.01757 -0.0025139 -0.103 -0.10803 -0.14398 -0.18992 -0.30255 0.11192 -0.15432 -0.011404 0.068955 0.17223 0.2213 -0.0093365 -0.23932 -0.13145 -0.38505 0.15861 0.089516 -0.11712 0.01188 0.1524 -0.13589 0.11659 0.19226 0.046954 0.053525 0.24757 -0.11256 0.24998 -0.3895 0.25211 -0.2475 0.076135 -0.18805 -0.52928 0.15553 -0.11673 0.25602 0.32837 -0.17918 -0.23779 0.07373 -0.36106 0.25785 -0.19046 -0.16677 -0.3051 0.18876 -0.2289 0.18459 0.37196 0.23371 0.17156 -0.12614 -0.23319 -0.40753 -0.52174 -0.13204 0.32109 0.15336 0.19899 0.4769 0.57007 0.1915 -0.14454 0.29716 -0.043304 -0.11287 -0.12618 0.070769 0.7134 0.036195 0.02744 0.41501 0.022474 -0.10557 -0.30862 0.19402 -0.035584 0.41145 -0.015604 0.17264 0.25773 0.035832 -0.32427 0.25562 0.1709 -0.088069 -0.063882 -0.13713 0.28715 -0.047472 -0.17088 0.034567 0.39718 -0.0059873 0.35553 0.29953 -0.28793 0.089812 -0.13595 -0.53198 -0.16014 0.092577 0.53632 0.001437 0.0031921 -0.38112 0.34484 -0.18111 0.1068 -0.061779 -0.091068 -0.19031 -0.25934 -0.035518 0.40981 -0.33014 0.40074 -0.34208 0.1836 0.19306 -0.38139 0.12969 0.6522 -0.22543 -0.032236 -0.28549 0.48929 0.057994 -0.23616 -0.046416 0.30744 0.34743 -0.073033 -0.30668 -0.32898 0.49035 0.20388 0.086874 -0.032583 -0.12631 -0.14537 -0.05211 0.063375 0.36923 -2.0817 0.21947 0.37763 0.35732 -0.29542 -0.14605 -0.42779 0.074938 -0.37814 0.03976 -0.033202 -0.0012743 0.14486 0.072242 -0.32901 -0.44821 -0.59137 0.094572 -0.11284 0.27482 0.19056 -0.035329 -0.5097 0.1368
came 0.15536 -0.0022361 -0.09686 -0.098124 -0.032113 -0.17405 -0.34881 -0.21952 0.079299 -1.194 0.050548 0.048148 -0.18217 0.016507 0.097409 0.42807 -0.015224 0.064923 -0.20212 0.33431 0.16732 0.041387 0.21898 -0.19137 -0.23553 -0.13428 0.032087 -0.21938 -0.015489 -0.12792 -0.060564 -0.091119 -0.25204 0.50348 -1.3189 -0.34785 0.016813 0.32938 0.15998 0.091556 0.11108 -0.13032 0.1738 0.13012 0.16177 0.26477 0.08256 0.041241 -0.14223 0.33283 -0.23378 0.058657 0.099714 0.039 -0.1101 -0.092282 0.1047 0.11877 0.064823 0.12528 -0.2054 -0.14114 0.13061 -0.22081 0.14581 -0.34093 0.017658 -0.026199 0.038823 -0.53498 0.06266 0.0040766 -0.080502 -0.0026186 0.19718 0.084315 -0.0095591 -0.29502 -0.30854 0.04783 -0.03455 0.096328 0.20159 0.29195 0.071594 0.00836 -0.044306 0.096139 0.28868 0.036914 -0.032738 -0.13173 -0.47423 0.01546 0.092215 -0.1575 -0.58657 -0.27456 -0.01968 -0.1833 0.16715 0.29705 0.13866 0.33613 -0.10927 -0.70892 0.13059 0.24585 -0.24481 0.39063 0.074833 0.041967 -0.079822 -0.26216 0.26906 0.26758 0.061402 -0.12916 0.087246 -0.57393 -0.14763 -0.25086 -0.089952 0.055086 -0.14865 0.072751 0.025366 0.40816 0.11499 0.10775 -0.071137 0.25274 0.17705 -0.34574 -0.064748 0.21368 -0.016554 -0.13637 -0.038705 0.22365 -0.15639 -0.083146 0.11443 0.10125 -0.4676 -0.14942 0.12649 0.20995 -0.13458 -0.17689 0.30569 -0.028183 0.023225 0.28286 0.31874 0.031281 0.19993 -0.21677 0.24964 -0.26116 -0.10714 -0.18837 -0.092869 0.030501 -0.08003 0.10995 0.023712 0.30754 0.20184 0.060928 -0.28983 -0.09318 -0.23639 -0.20003 -0.15005 -0.075799 -0.14677 -0.093242 0.036156 0.72909 0.3197 0.43494 0.17086 0.14932 -0.060217 0.085346 -0.63473 0.028313 0.36169 0.23888 -0.31505 -0.19087 0.1119 -0.067369 -0.017192 -0.18761 -0.10704 -0.036833 -0.11062 -0.079711 1.1388 -0.44154 0.1986 -0.24449 -0.11955 -0.041224 -0.036157 0.26312 -0.44371 -0.02208 -0.26936 0.38776 -0.0069227 0.014558 0.25676 -0.17211 -0.035944 -0.17566 -0.026382 -0.23673 0.75296 -0.032766 -0.15184 0.032221 0.16007 -0.099167 0.22533 -0.097531 0.18416 0.28753 -0.45717 -0.023125 -0.30246 -0.27804 0.11237 -0.028937 0.47267 -0.11553 0.41449 -0.0064303 0.13386 -0.11033 -0.05479 0.2841 -0.39944 -0.26405 0.12139 -0.11163 -0.11971 0.1418 0.012628 -0.28322 0.27261 -0.049821 0.68977 0.1022 0.20284 -0.0048357 -0.10898 0.31978 -0.26615 0.057283 0.26236 -0.071988 -0.34465 -0.14106 -0.33824 -0.32227 0.067358 0.077053 -0.10969 -0.10847 -0.026117 0.084313 0.047897 -0.17104 -1.9084 0.070886 0.26872 0.29915 -0.45458 0.13412 0.18097 0.1518 0.0452 0.13812 -0.08207 -0.043849 0.14325 0.1574 -0.058941 -0.015077 0.19337 0.14296 0.23679 0.59769 0.06655 -0.18543 0.034024 0.18139
catching 0.099686 0.30177 0.3926 0.35486 0.40296 0.42356 0.24398 -0.00062742 -0.15657 -0.40254 0.23319 0.15753 -0.44073 0.1453 -0.21543 -0.28787 -0.20016 -0.097062 -0.037196 0.36305 -0.12516 0.4842 0.015806 -0.079959 0.32287 -0.058018 -0.41324 0.047132 0.30334 -0.29624 0.095278 -0.48245 -0.044825 -0.17749 -1.0229 -0.33159 -0.35243 0.015292 -0.090336 0.065698 0.037809 0.048556 0.15624 -0.24163 -0.16895 0.40921 0.40277 0.23289 -0.028808 -0.24899 -0.12459 -0.22347 0.36798 -0.23793 -0.27981 0.41618 -0.18857 -0.51129 0.042224 0.096448 0.15349 -0.14541 0.48345 0.267 -0.072708 -0.17914 -0.21207 -0.49651 0.57265 -0.0059841 -0.060384 0.18097 -0.15547 -0.22579 -0.31551 -0.36591 0.46237 0.59184 -0.083196 -0.075199 0.018201 -0.28582 -0.25997 0.24012 0.1688 -0.22068 0.025466 -0.33454 -0.12977 0.18072 0.59694 0.023708 0.009645 0.065612 0.20291 0.12187 -0.31543 -0.51655 0.27208 -0.28921 -0.24617 0.18372 -0.071322 -0.043234 0.010527 0.35973 0.4983 -0.017971 -0.64102 0.19713 -0.29952 -0.052246 -0.52669 0.1426 0.81313 -0.32192 -0.014428 0.45282 -0.22566 -0.10451 -0.35977 -0.68724 0.19073 0.30486 -0.36975 -0.41687 0.24085 -0.054115 0.42815 0.083279 -0.29658 0.0099694 0.14412 0.30258 -0.11685 -0.59824 0.49313 -0.31242 0.1085 -0.29904 -0.19363 -0.051743 -0.012962 0.016225 -0.043201 0.55207 0.012567 0.051925 0.61684 -0.20309 -0.089544 -0.02182 -0.033669 -0.43208 0.010622 -0.20863 -0.072334 -0.025419 0.1042 0.16632 0.28207 -0.31267 0.3684 -0.36463 0.66159 -0.11791 0.13226 0.012785 0.25678 0.24798 -0.2277 -0.36532 0.1961 0.13311 -0.24871 -0.33089 -0.070244 -0.092307 0.23093 -0.33757 0.16979 -0.51797 0.24156 0.18587 0.10563 -0.10887 0.36867 -0.46655 -0.24262 -0.10067 -0.059403 -0.076445 -0.12252 -0.11805 0.2218 -0.25321 -0.24213 -0.43974 0.43306 -0.16992 0.94579 0.21842 -0.24204 0.081866 -0.10978 0.29935 0.14655 -0.10435 -0.20776 0.49372 0.059335 -0.4103 0.0072443 0.062936 0.040798 -0.31246 -0.045332 -0.0029274 -0.26282 0.077758 0.071571 -0.33973 -0.55285 0.1681 0.52633 -0.13322 0.32696 -0.074136 0.15692 0.39423 0.15883 -0.28424 0.4561 0.034692 -0.10159 -0.33475 -0.06873 -0.29812 -0.18803 0.043147 -0.025867 0.25973 -0.40219 0.3767 -0.25064 -0.13385 0.13524 0.61127 -0.10249 -0.13649 -0.57657 -0.3711 0.054702 0.14772 0.54815 0.15866 0.28878 -0.13775 -0.73342 -0.14753 -0.053851 -0.15972 -0.20264 0.095193 0.015768 0.18554 -0.58859 -0.23945 -0.59772 0.1548 0.41155 0.054048 0.076945 0.44672 0.16533 0.12004 -1.1539 0.27859 -0.75413 -0.20147 -0.2996 0.41574 0.43299 0.43042 0.11523 -0.38265 -0.4256 0.5303 0.09597 -0.19939 -0.066064 -0.14957 0.12009 0.083077 -0.21926 -0.20796 -0.021452 -0.27067 0.17555 -0.42346
caught 0.23972 -0.10644 0.067707 0.047647 0.40447 0.2435 0.26168 -0.061726 -0.60249 -0.85542 0.36201 0.5292 -0.28711 -0.31914 -0.57844 0.15766 -0.13051 -0.10112 -0.057667 0.17649 -0.32341 0.63126 0.52262 -0.38867 0.20636 -0.25252 0.22395 -0.29535 0.25201 -0.41696 0.057485 -0.074892 -0.19858 -0.21017 -0.91295 -0.68187 -0.3576 0.058931 -0.015204 0.48622 -0.35643 0.024971 0.48484 0.0020632 0.19915 0.47839 0.13029 -0.49892 -0.40837 0.1283 -0.41526 -0.27412 0.038249 0.032752 -0.0045645 0.081412 -0.11205 -0.39218 0.068862 -0.092408 0.28077 -0.23311 0.37535 0.17729 -0.2556 -0.28778 -0.11122 -0.57169 0.17076 0.0089341 0.061366 0.22665 0.076524 -0.11226 -0.44242 -0.2329 0.65191 0.33059 0.20123 0.28517 0.044305 -0.1471 -0.051527 0.27624 0.27411 -0.33222 0.089869 -0.12598 0.37434 -0.12017 0.11085 0.36725 -0.15626 0.33501 0.17469 0.094678 -0.038173 -0.2681 -0.037117 -0.45303 -0.15461 0.18337 0.047324 -0.26361 0.13229 0.39437 0.99195 0.10151 -0.54646 0.5568 -0.29223 -0.0091605 0.20614 -0.047131 0.98312 0.21927 -0.15909 0.22039 -0.25576 -0.265 -0.33507 -0.59898 -0.16986 0.26558 0.025427 -0.29832 0.3623 -0.17065 0.76838 0.16477 -0.057872 0.32433 0.17796 -0.0018363 -0.27287 -0.40987 0.19355 -0.69986 -0.38921 -0.3354 -0.33526 0.20117 -0.0084249 0.00038689 -0.65127 0.24221 0.29804 -0.33803 0.5391 0.076314 0.39801 0.5821 -0.04882 -0.31026 0.0041321 -0.083567 0.011029 -0.052308 0.26755 0.11997 0.18411 -0.3436 0.093468 -0.32334 0.13823 -0.022834 0.32451 0.033883 -0.14063 0.07752 -0.10246 -0.63089 0.090934 0.10485 -0.0062361 0.49249 0.051685 0.32756 -0.14683 0.12174 0.14298 -0.13665 0.11493 0.28861 -0.12169 -0.21947 -0.002578 -0.042667 0.24624 0.30078 0.23398 -0.24834 -0.029712 -0.0094495 0.15508 -0.50345 -0.61406 -0.49756 0.37909 -0.025011 0.96449 0.14817 0.13551 0.063288 0.099006 0.15082 0.39883 -0.00013382 0.08306 -0.13854 0.025218 -0.19897 -0.10527 0.60938 0.12395 -0.12586 -0.14565 0.13982 -0.21873 0.27058 0.32634 0.088507 -0.21475 -0.19384 0.68313 0.062957 0.42117 -0.86644 0.029099 0.56304 0.42999 -0.16773 -0.22967 -0.020786 -0.10097 -0.023603 0.055577 0.017399 -0.19646 -0.29454 -0.005538 0.3139 -0.3922 0.17237 -0.39791 0.030889 0.81328 0.5246 0.22269 0.26925 -0.23441 -0.13188 -0.15394 -0.27129 1.0386 -0.086573 0.33905 -0.095226 -0.19465 -0.22858 -0.095515 -0.19829 -0.47415 0.0095335 -0.020726 -0.052037 -0.19063 -0.46314 -0.48632 0.20192 0.4215 -0.11694 -0.055967 0.47277 0.14249 0.047914 -1.4688 0.28659 -0.68454 -0.050519 -0.36425 0.59388 0.67187 -0.10537 -0.030167 -0.026293 -0.34421 0.19627 0.12248 0.17711 0.10898 -0.16224 0.59251 0.13358 0.15781 -0.027043 0.27201 -0.19153 0.099752 -0.20853
causing 0.18394 -0.14433 -0.025083 -0.091489 -0.33715 -0.32302 0.46727 0.5395 0.12252 -1.4631 -0.4866 0.28214 -0.5784 -0.10823 0.021306 0.11548 -0.10125 0.13852 -0.27209 0.55661 0.017282 0.21323 0.063727 -0.35473 -0.34923 0.13763 0.52491 -0.20087 0.25072 -0.15572 -0.36106 0.98317 -0.23022 0.019606 -0.0085065 -0.1652 -0.64494 0.22121 0.079352 0.47708 -0.12734 0.18008 0.036835 -0.073187 -0.047211 -0.20311 0.37339 -0.41105 -0.12884 0.23212 0.31602 -0.14926 -0.09185 -0.32989 0.10726 0.37373 0.38003 -0.28254 0.18567 0.082287 -0.025622 0.027783 0.13744 -0.14815 -0.3045 -0.16415 0.093907 0.29371 -0.13975 0.19954 0.10077 -0.49989 0.35395 -0.1322 -0.25193 -0.33814 -0.11859 -0.12764 -0.59293 0.10589 0.1678 -0.44065 -0.11911 0.44621 -0.16734 0.10955 0.44414 -0.322 0.22101 0.15974 0.16476 0.26557 -0.26537 -0.24683 -0.23769 -0.0024493 0.10265 -0.065427 0.44457 -0.22898 -0.35338 0.1586 -0.295 0.142 0.14142 0.36492 -0.017992 -0.60457 -0.16886 0.58778 -0.91494 0.048018 0.11189 0.053621 0.28307 0.58499 -0.20449 0.29788 -0.54132 -0.39397 -0.2621 -0.5317 -0.033671 0.36973 -0.053565 -0.34346 -0.12209 -0.14153 0.53229 -0.16721 0.52768 0.7488 0.33621 0.57643 0.23249 -0.18305 0.036805 0.17797 0.0055587 0.06455 -0.58555 -0.030561 -0.25074 0.85372 -0.14702 -0.055149 0.27187 -0.39615 -0.43185 0.047983 0.4133 -0.033083 -0.44403 0.092691 0.26739 0.20012 0.15373 0.43053 -0.32465 -0.16651 0.18641 -0.27202 0.25566 -0.20973 0.39265 -0.10347 -0.020187 -0.017151 -0.13718 -0.094899 0.11081 0.12833 0.44065 -0.40265 0.1429 0.0055917 0.1189 -0.18346 0.19739 0.45496 -0.13954 -0.54294 -0.2221 -0.28916 -0.45775 -0.09181 0.40125 -0.33596 -0.49794 -0.40644 0.1958 -0.057851 -0.28866 -0.083002 0.2518 0.31718 0.5423 -0.64601 -0.041382 0.50717 0.17808 0.24477 -0.0054502 0.40966 0.22786 0.59977 0.2724 -0.084538 0.01513 0.31339 -0.070258 -0.14057 0.32114 -0.23414 0.39561 -0.28198 0.51816 -0.0441 0.27279 0.28537 -0.0075523 -0.088293 -0.070841 -0.24104 0.040681 0.23265 -0.38239 -0.019293 0.30297 -0.26117 0.48827 0.32642 -0.73138 -0.23394 0.31256 -0.42631 0.043549 0.48956 0.1821 -0.34037 -0.025489 0.080421 0.24556 -0.31331 -0.80056 0.20588 0.37099 0.00095388 0.13361 -0.33373 -0.028842 0.35567 -0.222 -0.3987 0.48658 0.040061 -0.54177 -0.25457 0.22162 -0.1737 0.21034 -0.42703 -0.17891 0.1767 0.19219 -0.43591 -0.070768 -0.14065 -0.29094 -0.30772 0.35477 0.37227 -0.083507 0.4114 -0.21806 -0.16636 -1.4579 -0.13759 -0.017553 0.47439 -0.42205 0.48086 0.52956 0.14899 0.054986 0.20723 -0.043846 -0.31143 0.034111 -0.050859 -0.16443 -0.43801 0.011257 -0.032674 0.25187 0.30603 -0.41161 -0.16795 0.22112 -0.48094
clean 0.27832 -0.044424 -0.55756 -1.022 0.030523 -0.047942 0.24502 0.2623 0.34722 -1.5707 0.31077 -0.056417 -0.12479 0.23978 -0.56464 0.21053 -0.081421 0.069592 0.0070637 0.085021 -0.41721 0.30549 0.076809 0.33521 0.17608 -0.12451 0.21851 0.22617 0.37927 -0.34338 0.013064 0.30818 -0.18571 0.11491 -0.98119 0.4011 0.21711 -0.36328 -0.32645 0.07358 -0.21644 -0.1036 0.59721 0.21016 -0.0004983 0.24706 0.064121 -0.1666 0.43089 -0.037546 -0.40122 -0.017376 0.43058 -0.49353 0.12905 0.23633 0.13972 -0.13806 -0.3917 0.24019 -0.20607 -0.14668 -0.4125 -0.15806 -0.18353 0.19372 -0.016469 -0.27877 -0.18112 -0.13079 0.0058135 -0.25642 0.023145 0.40119 0.27715 0.12328 -0.004197 0.71218 0.32323 -0.23577 -0.011481 -0.15293 0.33471 0.1001 0.47678 0.17439 -0.50598 0.46185 -0.048339 -0.45712 -0.12765 0.26453 0.41655 -0.15446 0.0077817 -0.38667 0.12744 -0.34219 0.4945 0.32761 -0.13154 -0.29093 -0.27829 0.09274 -0.041367 0.23028 0.22192 -0.096143 -0.41472 -0.12516 -0.013343 -0.75755 -0.35526 -0.47254 -0.30226 0.36652 0.078618 -0.26053 -0.27008 -0.31534 -0.31147 0.39393 0.16032 0.2396 -0.096028 0.51938 -0.58364 0.35096 -0.37991 0.40025 0.13443 -0.12973 0.4022 0.11419 -0.09275 0.16186 -0.14351 0.27801 0.40015 -0.22308 0.61869 0.007821 0.48094 -0.26795 -0.44891 0.33391 0.15925 0.034595 0.44435 0.71044 0.078463 0.11504 -0.2109 -0.33075 0.22694 -0.004253 -0.2088 -0.11468 0.099405 -0.015622 -0.16353 -0.51677 -0.051876 0.32244 -0.21926 -0.23877 0.81272 0.0024369 0.47039 0.23684 -0.1464 0.13016 -0.16196 0.076822 0.058998 0.035726 0.44013 -0.031363 -0.72529 -0.20317 -0.41509 -0.31001 0.59445 -0.18172 -0.22224 0.066828 0.87273 0.039307 0.54794 -0.040826 0.298 0.3713 -0.68766 0.25987 0.40742 0.089546 -0.70652 -0.024467 -0.38984 0.17991 0.29062 0.36606 0.55524 -0.071144 -0.37585 -0.29815 0.38276 -0.42324 -0.046022 0.16456 -0.63386 -0.33262 -0.61787 0.37541 0.47493 0.21398 -0.095188 -0.52182 -0.17334 -0.06933 0.29162 0.1062 0.024016 0.18249 -0.08026 -0.35099 -0.18832 -0.1907 -0.00014381 0.16977 0.46594 0.41726 -0.056535 -0.16141 -0.025141 -0.34174 -0.37614 -0.038749 -0.068734 -0.19686 0.2249 -0.32866 -0.21722 0.42442 -0.77909 0.19085 0.52308 0.29687 -0.47469 -0.48284 0.26208 -0.85698 -0.051963 0.1284 0.81161 -0.36555 -0.083824 0.073687 0.11878 0.37574 -0.042571 -0.076504 -0.725 0.15532 0.15874 0.45785 0.18782 -0.14172 0.28038 -0.060719 -0.042701 0.019209 -0.59722 0.18016 -0.20253 0.099835 -1.9105 0.12475 0.32912 -0.50256 -0.041594 0.18899 -0.056329 1.0381 -0.037912 0.43238 -0.10007 -0.10748 -0.11252 -0.47862 -0.50377 0.41124 -0.43211 0.18821 0.44237 -0.092348 0.5384 -0.33991 -0.19088 0.41248
close -0.2709 0.44864 -0.1764 -0.089172 0.15247 -0.43971 -0.40436 -0.2154 0.57163 -1.685 -0.21689 0.085165 0.061184 0.39016 -0.22064 0.28842 -0.21893 0.013708 -0.39377 -0.13416 0.025409 -0.054306 0.30953 -0.081351 0.12929 -0.065571 -0.087559 -0.084682 -0.053161 0.041177 0.19232 -0.012921 -0.32141 0.72977 -1.0787 -0.11367 0.2359 0.0085362 -0.31902 -0.02305 -0.034462 0.12183 -0.3448 0.10288 -0.17255 0.36763 0.29952 0.41811 0.49789 0.088793 -0.19267 -0.31794 -0.24254 -0.58174 -0.063073 -0.21567 0.033483 0.57211 0.48466 -0.27557 0.22087 -0.31303 0.1836 -0.13975 0.52065 -0.46814 0.34061 -0.13626 -0.22736 0.35088 -0.16979 -0.072332 0.038092 0.1877 0.29957 -0.092039 0.049011 0.33374 -0.1235 -0.071961 0.18377 -0.17615 -0.17564 0.11978 -0.00047679 0.35518 0.45693 -0.11946 -0.48825 -0.22993 0.063212 -0.090706 -0.21382 -0.15431 0.22387 0.051017 -0.49931 0.10497 -0.13737 -0.44695 0.14112 0.2246 -0.12731 0.15917 -0.31273 -0.048138 0.40971 0.049551 -0.008787 0.34055 -0.41336 -0.36731 0.19603 -0.39599 0.31825 0.4194 -0.087158 -0.12555 0.31255 -0.034872 -0.56566 -0.20118 0.15168 -0.053054 -0.10873 0.15392 0.27712 0.38958 -0.066811 -0.49214 -0.15742 -0.080293 -0.026721 0.17014 -0.10524 0.0055006 0.079105 -0.31466 0.57781 0.17813 -0.15114 0.027175 -0.31501 0.34374 -0.82044 -0.18928 -0.4047 -0.49768 -0.36209 -0.18095 0.3181 0.054191 -0.1596 -0.028367 0.47353 -0.14622 -0.21135 0.1002 0.80619 0.20826 -0.05734 0.067021 -0.09869 -0.063993 -0.0059407 0.087007 0.22787 -0.17095 0.047926 0.024184 -0.028888 -0.075547 -0.44806 0.15413 0.52424 0.031146 -0.34542 0.044147 -0.11429 0.43546 0.55817 0.076253 0.13478 0.27635 0.064043 -0.16852 -0.27228 -0.043472 0.27651 0.43543 -0.098999 -0.29531 -0.34623 0.15082 -0.66189 -0.40297 -0.29481 -0.34774 -0.0019678 0.021642 0.90881 -0.3057 0.36079 0.022159 -0.42604 0.67618 -0.054467 -0.78399 0.21112 -0.32043 -0.32481 -0.13739 0.34896 -0.13839 0.083854 0.03128 0.08884 0.11641 0.06644 0.25878 0.83557 -0.31216 -0.10689 0.011399 -0.28882 0.076443 -0.2005 0.0068552 -0.47998 0.29082 0.14287 -0.10482 -0.15592 -0.12314 0.016516 0.023786 0.28248 0.094507 0.5838 0.45435 0.044517 0.16355 0.57606 0.24619 -0.2222 -0.10748 0.32016 -0.075032 0.11183 -0.14905 -0.12321 -0.13002 0.096103 0.040734 0.17228 0.025655 -0.011152 -0.28425 -0.29555 0.4925 0.25904 0.61756 -0.2225 -0.34113 -0.33464 0.20662 0.41611 -0.24864 0.24559 0.079261 0.16395 0.28805 0.17621 -0.19103 -0.24162 0.04152 -1.3371 -0.25848 0.082537 0.11888 -0.18308 0.63733 0.43552 -0.80556 0.050065 -0.16983 0.1948 0.021198 -0.20743 -0.17179 -0.088146 -0.077411 -0.1735 -0.34143 0.34725 0.49127 -0.20233 -0.46534 -0.13449 0.21312
cork 0.34675 0.1884 -0.044434 -0.6173 -0.28288 0.26404 0.59162 0.50745 0.40122 0.088479 -0.49036 0.05174 0.16835 -0.25642 -0.043045 0.50544 -0.34535 -0.20765 0.34297 -0.0755 -1.0758 0.36689 -0.61415 -0.067553 -0.073933 -0.56825 -0.61508 0.31856 -1.1753 0.61941 -0.20562 -0.2673 0.3875 -0.22065 -0.89183 0.23769 -0.12086 0.87384 0.053871 -0.037192 -0.28905 -0.38626 0.33281 0.5905 -0.56239 0.16113 0.062243 -0.035642 0.21972 -0.30303 -0.58938 0.31924 -0.3065 0.21363 0.41718 0.38239 -0.041713 0.1524 -0.28045 -0.051795 -0.35465 -0.12511 -0.63512 0.5764 0.26785 -0.17564 0.2058 0.57815 0.28148 -0.53961 -0.47379 -0.3802 0.32474 0.21403 -0.56779 -0.33571 -0.35318 -0.26573 -0.72697 0.16217 -0.09391 0.088349 0.65605 0.23471 -0.035218 -0.45267 -0.007987 0.42975 0.17796 0.84884 0.65058 -0.038018 -0.20321 -0.13788 0.15174 0.68407 0.46878 -0.57082 0.2886 -0.22164 -0.26497 0.33181 0.20394 -0.12477 0.19419 -0.01937 0.30051 0.17847 -0.62059 0.94423 0.0093397 0.096094 0.75554 -0.53309 -0.063894 -0.43774 -0.73787 0.31002 -0.59311 -0.30648 -0.58021 -0.3923 -0.1654 -0.44934 -0.10691 -0.1977 0.28096 0.59525 0.15433 0.58859 0.33582 -0.29502 0.34553 -0.62989 0.17987 0.57238 0.52704 0.44608 -0.19445 -0.81217 0.30035 -0.418 -0.061397 -0.21373 0.092018 0.11158 0.22768 -0.32262 -0.61211 -0.33033 0.47843 -0.084386 0.14224 0.0058805 -0.24286 0.096643 -0.38168 -0.19927 0.48558 0.091171 -0.31935 0.56035 -0.24409 -0.10467 -0.48229 -0.092359 0.24893 -0.084949 0.36792 0.43716 -0.61018 0.081008 0.075727 0.4196 0.33329 -0.34455 -0.18908 0.28229 -0.57257 -0.28396 -0.98465 -0.42177 0.14028 -0.061446 0.52484 0.14902 0.096949 -0.28523 0.19912 0.073129 0.51164 0.66664 0.77101 -0.63345 -0.25986 0.17146 -0.034022 0.45134 0.32927 0.19584 0.24394 -0.33763 -0.31837 -0.044792 0.26917 -0.18215 0.60762 0.17321 0.0073404 -0.39564 -0.1697 0.077759 -0.53319 0.063274 0.42541 -0.28717 -0.26201 -0.13936 -0.17933 -0.57886 0.29466 -0.0051875 -0.035904 -0.053549 -0.13927 -0.13116 0.35706 -0.11621 -0.035068 0.60079 0.52334 0.79102 -0.058774 -0.27842 0.35376 0.16484 0.1922 -0.17648 0.45971 1.0006 -0.061638 -0.6642 0.050439 0.18542 -0.84423 0.22721 0.047674 0.15221 -0.24237 -0.4262 0.29286 -0.20204 0.35173 -1.2372 0.51393 -0.3629 0.27254 -0.3256 0.3528 0.45908 0.0047333 -0.21656 0.40698 0.63319 -0.63105 -0.22708 0.063722 -1.0785 0.21923 0.67556 -0.071413 0.049314 0.26668 -0.1477 -0.51671 -0.70626 0.17898 -0.39532 -0.63142 0.19129 -0.37425 0.028635 -0.77888 0.054719 0.41361 0.21687 0.13601 -0.45751 1.0796 0.43765 -0.45057 0.08482 0.33525 0.14323 0.031042 -0.10351 0.33028 -0.67745 -0.65795 0.12118
crept -0.36707 0.2717 -0.092487 1.1533 -0.26936 -0.21648 -0.09769 -0.5345 0.6694 -0.25237 -0.3778 0.41179 -0.066409 0.02359 -0.27042 0.40854 0.227 -0.46435 0.070117 0.49944 0.31307 0.0080611 -0.14759 -0.13195 0.064526 0.43163 0.23809 0.089547 0.078454 0.34307 0.13482 -0.011047 0.25021 0.42069 0.010451 0.07854 -0.32969 -0.16501 -0.038835 -0.0050511 -0.14006 -0.21398 -0.12382 -0.039728 0.40231 -0.1463 0.18749 -0.15223 0.02726 -0.035357 -0.036383 0.23557 0.23261 0.17138 -0.3312 -0.65938 0.056814 -0.38303 0.53379 0.22276 0.42607 0.89008 0.1924 -0.10756 -0.34597 0.070258 0.42661 0.37235 -0.03772 -0.35433 0.087869 0.26692 -0.072729 -0.014298 0.21067 0.34145 0.067425 -0.23077 0.25076 0.0033958 0.19559 -0.0111 0.34634 0.28611 0.37996 -0.018977 0.056273 -0.48042 0.37883 0.093235 0.61214 -0.38549 0.21512 0.50153 -0.35508 -0.074827 -0.21183 -0.20274 -0.15131 -0.17762 0.12129 0.041901 -0.040164 0.36862 0.068125 -0.081252 0.30089 0.29011 0.05803 0.55848 -0.21561 -0.29093 -0.43024 -0.25994 0.23247 0.65934 0.042732 0.00070574 -0.31504 -0.35951 -0.0653 -0.61111 -0.028832 0.87752 0.0088048 -0.048556 -0.062028 -0.25437 0.40605 0.27503 0.036332 -0.17426 0.18113 0.72188 0.31295 0.19025 0.12835 -0.1462 0.34784 0.41552 -0.056839 -0.184 -0.21163 1.1803 -0.6636 0.069451 -0.55513 -0.11373 -0.26003 -0.11967 -0.083018 0.13881 0.20489 -0.12326 0.11905 0.07471 -0.22444 -0.22596 0.67187 -0.0097248 -0.33834 -0.4366 -0.26284 -0.29698 0.21586 -0.28312 0.086765 0.148 -0.56447 -0.19 -0.7139 0.31329 0.23167 -0.36705 0.12137 -0.099295 -0.33626 0.33953 0.38665 0.42343 -0.25839 0.24618 -0.16064 0.095119 0.48773 -0.19585 0.66094 -0.16874 -0.055697 0.3433 0.041062 -0.41514 -0.27254 0.035545 -0.23906 -0.24952 -0.031041 0.60097 -0.19807 0.16432 0.14971 -0.13149 0.55286 0.31565 0.057961 0.32703 -0.33784 -0.4989 -0.17753 0.88046 -0.29812 0.82096 0.111 -0.071429 0.14993 0.1009 0.5769 0.17565 0.72499 -0.080074 0.43188 0.25802 -0.7978 -0.041068 0.17278 0.070998 0.075016 0.26625 0.7945 0.2628 -0.23394 0.011234 -0.44185 0.25712 -0.10113 0.064348 0.12072 0.077354 -0.26978 -0.037072 0.3617 -0.13335 -0.22391 0.23952 0.072525 -0.5871 0.40814 0.43398 -0.35015 0.26455 -0.42652 -0.29312 0.83075 -0.020246 -0.15292 -0.26417 -0.077295 0.16206 -0.14929 0.46199 -0.33017 0.14861 0.056923 -0.31692 -0.50747 0.2157 -0.3583 -0.29502 -0.40761 0.13263 0.23712 0.73293 -0.11081 0.23487 -0.15763 -0.12261 0.52586 -0.10001 -0.18776 -0.17469 -0.17186 0.1861 0.033479 -0.20596 0.11408 -0.29753 -0.020869 -0.60273 0.19395 0.025025 0.2052 0.4428 -0.32549 0.35519 0.17251 0.16383 -0.3795 0.089173 0.1845 -0.18864
cuffed -0.38681 -0.19103 -0.20337 -0.47458 -0.011833 0.023424 -0.39707 -0.59364 -0.20284 0.96145 0.0050335 0.074142 0.1645 0.25405 0.093213 0.24569 -0.20269 -0.015849 -0.092269 0.072178 -0.20759 -0.42969 0.12975 -0.73929 -0.19064 -0.37854 0.72503 -0.030283 0.46887 0.070747 -0.48421 -0.43414 0.096943 0.24109 0.51355 -0.16619 0.20481 -0.15022 -0.35947 0.30824 -0.45665 -0.87535 -0.91874 -0.90395 0.29922 0.25845 0.36612 -0.23901 0.002614 0.51363 -0.33728 -0.50006 -0.036971 -0.62878 0.38693 0.25207 -0.26115 -0.0061369 -0.47244 0.43217 0.41033 -0.28033 -0.094579 0.75444 -0.48691 0.03952 -0.013239 -0.65478 0.086713 -0.22386 0.89175 -0.15768 -0.20824 0.23953 0.64641 0.01121 -0.22063 0.48954 -0.050663 -0.11716 -0.25961 0.061785 -0.13955 0.45112 -0.10766 0.27185 0.35211 0.21427 -0.29449 0.041633 0.35526 -0.16672 0.36095 0.77714 0.021621 -0.016338 -0.26258 0.26457 0.36328 0.8234 0.47842 0.26668 -0.47389 0.52088 -0.089753 -0.071541 -0.60293 0.34876 -0.45096 -0.52216 -0.84454 0.34582 -0.56052 -0.28857 -0.76105 0.12461 -0.69954 -0.53156 0.066711 -0.53497 -0.63949 0.020472 0.25246 -0.37789 -0.41182 -0.2435 -0.31852 -0.5893 0.20811 0.13259 0.1508 -0.2355 -0.44725 0.2865 -0.68831 0.047014 0.9049 -0.26191 0.022367 0.15367 -0.4932 -0.50507 0.051169 0.1887 0.34592 -0.077121 -0.58138 -0.036098 0.66001 -0.090833 -0.41838 0.28391 0.58215 0.75819 -0.39344 -0.47324 -0.077325 -0.22509 0.15356 0.79757 -0.67623 0.16535 -0.21023 0.038135 0.91071 0.32009 0.13244 0.32271 -0.23268 -0.10048 0.6165 0.11678 0.13168 -0.14367 0.091102 0.029453 -0.69975 0.86261 -0.066673 -0.72224 0.44812 -0.070423 0.56735 0.19786 0.54779 -0.27919 0.41818 0.63917 1.1169 0.45902 -0.073069 -0.11623 -0.16511 0.19044 0.42947 -0.19526 -1.1544 -0.15249 -0.099213 -0.16307 0.057017 -0.1378 0.12589 0.32184 0.4733 -0.068285 -0.021504 -0.23389 -0.32315 -0.10708 0.10781 -0.38999 -0.57977 0.41094 0.4305 0.45022 0.0063276 0.35901 0.19778 0.030792 0.004884 0.73735 0.47677 0.21364 0.2381 0.25527 -0.0018123 -0.31467 -1.0544 -0.89969 0.67965 -0.40075 -0.55899 0.42549 -0.31334 0.095846 -0.26043 0.078469 -0.54092 0.43339 0.022028 -0.10294 -0.74057 0.11556 -0.02474 -0.11024 0.24744 -0.27737 0.38873 0.14419 -0.35225 -0.11345 0.89371 -0.58765 -0.27689 0.30169 0.24048 0.59673 -0.94593 -0.027214 0.59799 -0.69166 0.37336 0.21329 -0.50092 0.19135 -0.34893 0.21534 -0.77842 -0.43142 -0.47379 -0.58238 -0.26708 0.41835 -0.15488 -0.40191 0.89578 0.017161 -0.31879 0.44986 0.66393 0.83065 0.4655 0.27065 0.2689 0.49288 -0.10183 0.11171 0.2051 -0.8372 0.21481 0.31519 -0.033433 0.48678 0.035793 0.0092498 -0.10275 0.3097 -0.19477 0.098903
day -0.24501 -0.12491 -0.2536 0.33819 -0.10528 0.17239 -0.24134 0.14848 -0.020182 -1.3848 0.31645 0.034334 -0.1842 0.1491 -0.089714 -0.094922 0.2393 -0.045581 -0.42978 -0.1337 -0.10194 -0.27081 0.014754 -0.052341 0.41858 -0.40219 0.1805 -0.078451 0.029607 -0.17606 0.22696 0.20873 -0.13787 0.37559 -1.4496 0.050912 0.11853 0.023446 -0.39657 -0.022475 -0.20252 0.065408 0.079219 0.074154 0.13425 -0.10429 0.34589 0.21272 -0.28454 -0.15088 -0.2041 -0.3168 -0.10629 0.18745 -0.14599 0.59753 -0.013556 0.46395 0.30307 -0.11303 0.22118 -0.36687 0.30545 -0.19835 -0.22105 -0.50803 -0.045341 0.0060273 -0.31564 -0.079251 -0.25863 0.057227 -0.14742 -0.15568 0.093014 -0.2816 0.047521 0.29746 -0.25794 -0.23693 -0.11127 -0.076524 0.14787 0.76944 -0.14325 0.096863 -0.29036 0.13359 0.39336 0.46127 -0.080197 -0.25843 -0.35352 -0.23337 -0.34055 0.037516 -0.21631 0.03656 -0.37644 0.0064905 0.15856 0.25502 -0.049407 -0.18215 0.22928 -0.26326 0.6009 0.097174 -0.35123 0.040334 -0.31842 0.25682 -0.3406 0.21926 0.19693 0.044727 0.27964 0.034217 0.22449 -0.43456 -0.39541 -0.30436 -0.56902 0.26914 0.25996 0.14427 0.058777 -0.16984 0.3045 0.33707 -0.035912 0.46449 0.040021 -0.39843 -0.03911 -0.075097 -0.049389 0.065275 0.33761 0.081059 0.16749 0.021644 0.17084 -0.094797 -0.8189 -0.025721 0.27001 0.13222 0.061824 0.37524 0.51812 0.14935 0.014664 0.27139 0.63546 -0.22938 -0.20434 -0.19828 0.30237 -0.035263 -0.029537 -0.2956 -0.091833 -0.075234 -0.18316 0.52938 0.27423 0.22305 0.041535 0.092442 -0.25414 0.15716 -0.45811 0.12563 0.054765 0.0062019 0.050822 -0.020336 -0.3008 0.8228 0.10914 0.67836 0.050778 -0.10116 0.029866 0.64938 0.052901 -0.055176 -0.19621 0.050372 -0.11103 -0.13513 -0.1407 -0.20776 -0.12468 -0.037458 0.2033 -0.19477 0.046595 -0.31376 1.0199 -0.12807 -0.0022477 0.053575 0.20671 0.31664 -0.41841 -0.018153 -0.020048 -0.17783 -0.33425 0.025476 0.0094035 -0.1076 -0.2928 -0.077256 0.093974 0.1323 0.42243 0.14769 0.72965 0.26165 -0.78298 0.62523 0.097776 -0.24584 0.29077 -0.31219 0.040455 0.1389 0.32039 -0.31082 0.066324 -0.51774 0.7425 0.12129 0.12371 -0.14056 0.25246 -0.075063 -0.053886 -0.14002 -0.12009 0.17649 -0.17915 -0.2616 0.15656 0.1197 0.25722 -0.28692 0.18818 -0.19131 0.18348 -0.073757 0.045892 0.10134 0.29139 -0.52174 0.12474 0.070981 0.10707 0.22787 0.41307 -0.20297 0.038853 0.11475 -0.040507 -0.39236 0.54228 0.2258 -0.24978 0.086668 0.37089 0.15401 0.024346 0.091258 -2.2976 -0.24026 0.33116 0.30743 -0.43657 -0.45926 0.24748 -0.12095 -0.083282 0.074816 -0.062805 -0.058349 -0.38951 -0.021843 -0.055235 -0.21515 -0.38225 0.15841 0.023086 0.2193 0.055693 -0.41073 -0.61926 0.0039007
dinner -0.48671 0.197 0.63488 0.40588 -0.14333 0.17206 -0.29956 -0.47556 0.18911 -0.21446 -0.035465 -0.10507 -0.20996 0.35518 -0.52417 -0.44113 0.48836 0.12212 -0.24892 0.19225 0.029202 0.28155 -0.12351 -0.16711 0.12887 -0.38318 0.15662 -0.15531 0.34388 -0.92395 0.032851 0.092688 -0.028999 0.30921 -1.3865 0.472 0.21072 0.55838 -0.22853 -0.38304 -0.47191 -0.028665 -0.18455 0.1517 -0.12083 0.23714 0.6315 -0.23936 -0.26745 0.27955 0.46139 -0.2348 0.0703 -0.28121 -0.48957 0.29917 -0.13992 0.18804 0.13104 0.19398 0.43602 -0.54905 0.31474 0.17878 -0.14179 -0.86689 0.26619 0.29713 -0.968 -0.18541 0.11559 0.0049644 0.48986 -0.067973 -0.13453 -0.219 0.42889 0.69378 -0.13063 -0.29374 -0.24018 0.69855 0.17844 0.27826 0.67136 -0.76486 -0.39238 -0.079855 -0.33992 -0.27428 0.42024 0.14488 -0.39097 0.55733 0.17889 -0.2731 0.46521 0.25366 -0.47801 -0.10455 0.0033662 0.10242 0.29671 0.28608 0.37173 -0.20503 0.27907 0.11614 -0.31368 -0.38198 0.1163 0.48388 0.18378 -0.0040867 0.01264 -0.14434 -0.31195 -0.22905 0.1057 -0.41781 -0.16675 0.29941 -0.23583 0.17237 0.208 -0.21221 0.46896 -0.093215 0.0089056 0.11106 0.10756 0.19471 0.13237 -0.47943 -0.11882 -0.088145 0.020383 0.20731 -0.10319 -0.054682 -0.0081103 0.24867 0.14761 -0.042796 -0.21884 -0.09639 0.0054481 -0.479 -0.086053 0.33206 0.19886 0.50383 0.43839 0.19859 -0.045072 -0.48967 0.23956 -0.22887 0.019875 -0.28112 0.41362 0.67775 -0.26111 -0.24518 0.20365 0.65891 -0.48443 -0.48467 0.12206 0.012962 -0.63913 -0.14855 -0.51626 -0.076231 -0.25381 -0.32933 -0.39004 0.51991 0.67044 -0.31533 0.51767 0.16033 -0.027071 -0.3324 -0.17392 0.81923 -0.087463 0.56935 -0.43804 -0.63885 0.14135 0.33406 -0.76695 -0.076509 -0.090893 0.26106 -0.11542 0.10837 -0.48312 -0.5016 0.99515 -0.25143 0.37277 0.67075 0.32254 0.076468 0.53084 -0.18331 -0.23368 -0.63893 -0.17735 -0.38038 0.3984 0.018322 -0.16732 0.079049 0.30505 -0.94827 0.19744 0.50316 1.1717 0.071574 -0.19894 0.043337 -0.68917 -0.21766 0.45337 -0.15623 -0.12618 0.15954 -0.067464 -0.50934 -0.15684 -0.11029 1.2313 -0.02271 0.20861 -0.20193 -0.005507 0.10013 -0.27635 -0.054729 -0.15548 0.13365 -0.061948 0.54552 -0.54545 0.33454 0.066593 -0.65361 0.63034 -0.40297 0.0057795 0.21151 0.19751 0.34286 -0.23076 0.17779 -0.01127 0.35753 -0.30043 -0.15891 0.53907 -0.19401 -0.016443 -0.25237 0.38221 0.35747 0.58799 -0.1225 -0.3156 -0.049499 0.18059 -0.20046 0.49938 -0.16702 -1.6605 0.51196 -0.37506 -0.71164 -0.40298 -0.22805 0.64682 -0.37917 -0.48406 0.7296 0.45076 0.021672 0.099627 -0.0016204 0.38854 0.042233 -0.38284 0.25958 -0.39325 -1.005 -0.070848 0.088737 -0.32031 0.24918
disappeared 0.13881 -0.3019 0.032056 -0.072472 0.44976 -0.063106 -0.094573 0.43492 0.22776 -1.0677 -0.32529 0.29153 -0.16382 -0.25754 0.012645 -0.32049 0.91954 -0.11757 -0.19722 0.28607 -0.11704 0.31641 -0.057243 -0.5157 -0.44052 -0.60125 0.14047 -0.2022 -0.019025 0.38898 0.093671 0.28977 -0.24191 -0.25854 0.021966 -0.45401 0.092163 0.58736 0.36296 0.27736 0.32726 -0.4192 0.02009 0.13208 -0.19676 0.022671 0.51196 0.35334 -0.16373 0.028032 0.50833 -0.4757 0.13371 0.49241 -0.065745 -0.31634 0.58809 -0.25792 0.047004 -0.076711 -0.031916 0.5062 -0.039275 0.079742 -0.083385 -0.42182 0.24657 0.15771 -0.16256 -0.78011 -0.46335 -0.4892 -0.33303 -0.14 0.0045444 0.097822 0.32109 -0.39206 0.55196 0.29125 -0.40185 0.16055 -0.0023838 0.78035 -0.16897 -0.17137 0.1937 -0.055117 0.10337 0.16453 -0.38413 -0.035591 -0.10993 0.23369 -0.17272 0.46513 -0.30223 -0.43822 0.27338 -0.18738 0.051239 0.37271 0.63643 0.36727 -0.15195 0.025318 0.24077 -0.35854 -0.14282 0.29913 -0.64508 0.065054 0.53929 -0.12737 -0.076395 -0.057621 0.18174 0.047445 0.084879 -0.14924 -0.32488 -0.42648 -0.20478 0.36457 0.096905 -0.089458 -0.15753 0.016009 0.14806 -0.0077728 -0.45422 0.036273 0.43792 0.0078266 -0.14579 0.21606 0.15148 0.10084 -0.43146 -0.2729 0.12139 -0.15287 -0.27843 0.29554 -0.34762 0.27743 0.54893 0.088311 0.08185 0.081576 0.20964 0.4036 -0.41058 -0.088808 0.5404 -0.18954 -0.2332 -0.47733 0.082289 -0.17601 -0.15863 -0.22105 -0.019849 0.29324 0.043904 -0.28391 0.24315 -0.36139 -0.23802 0.19329 -0.22345 -0.20768 0.18504 0.38848 -0.25461 0.071852 0.34317 -0.22687 0.13513 -0.097894 0.12982 0.50949 0.41909 0.029666 -0.10724 -0.086874 0.18017 0.016904 0.32354 0.22488 0.25984 -0.061254 0.11456 -0.20654 -0.044515 -0.19903 -0.16912 0.10879 -0.063763 0.052837 0.72829 -0.4059 0.04856 -0.034326 0.109 -0.20635 -0.3013 -0.17117 -0.28411 0.21963 0.0092398 -0.067634 0.073625 -0.078827 0.34505 -0.047794 -0.24133 -0.42948 0.12612 0.44549 0.34724 -0.1585 0.20432 -0.41799 0.027047 0.37247 0.25902 -0.21231 0.291 -0.12375 0.35622 -0.2331 -0.36726 -0.20391 -0.24866 -0.17739 0.14722 0.3164 -0.083654 -0.43536 0.31833 -0.22551 0.36295 0.2112 0.32673 -0.44202 0.56321 -0.18416 0.14204 0.66921 -0.20277 0.097239 0.030044 0.15393 0.47285 0.51224 0.10493 0.41355 -0.42286 -0.18269 -0.057209 0.24384 0.04084 -0.097437 0.18124 -0.037285 0.24906 -0.22786 -0.19458 0.0036697 -0.080492 0.27472 -0.087524 -0.3478 0.37394 -0.082163 -1.0925 -0.16688 0.24098 0.49322 -0.38063 0.1014 -0.1338 -0.60114 0.053607 0.29454 -0.0064159 0.05976 -0.017054 0.7644 0.2087 0.3183 -0.034424 0.33909 -0.78517 -0.16071 0.18835 -0.067722 -0.072274 -0.075624
door -0.01249 0.10816 -0.24888 -0.69305 0.31267 0.12725 -0.55746 -0.12387 0.06741 -1.3958 -0.44799 0.31585 0.31542 -0.20747 -0.48489 -0.21377 0.070977 -0.42008 0.05906 0.1959 0.49559 0.54171 0.27497 -0.3098 0.00022559 -0.24526 0.64175 -0.20558 0.029499 -0.094673 0.24826 -0.037875 0.10342 0.081823 -0.74535 0.69096 -0.47305 -0.43549 -0.30689 -0.27948 -0.47731 -0.029868 -0.4712 0.13645 -0.35482 0.5277 0.46479 -0.65751 -0.79624 -0.23151 -0.20946 0.1856 0.22273 -0.45463 0.017325 0.075871 0.22356 0.084418 0.15647 -0.24355 0.3147 0.11246 0.045436 0.42812 -0.14958 -0.48297 0.48416 -0.43006 -0.00018754 -0.43617 -0.47689 -0.4994 0.14997 0.43192 0.34473 0.40252 -0.37553 -0.38429 -0.0081433 -0.57902 0.073898 0.47567 0.16123 0.45162 -0.56492 -0.35079 0.11869 -0.041999 -0.4881 -0.24078 0.14575 -0.26383 -0.26038 0.29627 0.15662 -0.40106 -0.46955 -0.37762 0.02064 -0.43759 0.089651 0.59544 -0.094022 -0.20714 0.12782 -0.44642 0.2323 0.063003 -0.23058 0.099256 -0.24348 0.22342 -0.12202 -0.097001 -0.25908 0.30416 -0.41647 0.060588 -0.33087 -0.11626 -0.18425 -0.51052 0.27844 -0.21617 -0.050306 -0.54686 0.15711 -0.19323 0.2827 -0.47514 0.77158 -0.034981 -0.019999 0.097275 0.16816 0.12563 -0.050475 0.18076 -0.11142 -0.21616 0.29195 -0.057786 -0.2505 0.078086 -0.65854 -0.20336 0.10717 -0.13603 0.061724 -0.11115 0.15556 0.071718 -0.0095785 -0.27587 0.14516 0.19027 0.39088 -0.12571 -0.19307 0.41315 0.4794 0.66196 -0.22623 -0.0089377 0.34952 0.41722 -0.07268 -0.00060268 0.73224 -0.53763 -0.26017 0.57159 0.26017 -0.16348 -0.026223 -0.12132 -0.26523 0.25732 0.10632 -0.46511 0.17401 -0.08063 0.040345 0.14809 0.071497 -0.4767 -0.04698 0.30917 0.50114 0.49812 0.18568 -0.23741 -0.0883 0.31509 0.23328 0.10718 -0.025941 0.010983 -0.52236 -0.36501 1.14 -0.078955 0.43664 -0.018633 0.12697 -0.40861 -0.097136 -0.70938 -0.27445 0.18805 0.22803 -0.06808 -0.31143 -0.13471 0.33667 -0.44144 -0.077656 0.27329 -0.01175 0.14856 0.539 0.34871 0.16946 -0.19878 -0.055828 -0.030485 -0.58586 0.26806 0.32037 -0.48814 0.21674 -0.89393 -0.27943 0.082785 0.54373 0.30641 0.079432 -0.34968 -0.37836 -0.02255 0.32161 0.23336 -0.2784 0.3476 0.057943 -0.5574 0.088998 -0.15989 -0.35752 0.34341 0.081236 -0.15284 0.11744 -0.3267 -0.068001 0.10999 0.19565 -0.21774 -0.12537 0.30411 0.03796 -0.398 0.4741 0.061004 -0.083459 -0.33121 0.26754 -0.18182 -0.25619 -0.24813 -0.30985 -0.11558 -0.47259 -0.15831 -0.13527 -0.060321 -2.1415 0.33702 -0.11064 0.14542 -0.54827 -0.093461 -0.17059 -0.25297 -0.032978 0.63479 0.10971 -0.13702 0.22243 -0.1171 -0.23065 -0.36059 0.2452 0.36432 -0.0022822 0.64303 0.1207 0.049559 0.051595 0.97932
down -0.081429 -0.11004 -0.031034 0.60457 0.067606 -0.31609 -0.46059 -0.20273 0.46852 -1.6009 -0.4533 -0.19684 0.20119 -0.17361 -0.10069 0.37192 -0.049373 0.2297 -0.21218 -0.041316 -0.27262 0.3811 0.49122 -0.20979 -0.51443 -0.35561 0.22332 -0.24093 -0.0032059 0.040946 0.0022596 0.25204 -0.017363 0.13675 -1.3253 -0.14328 -0.042798 0.15638 -0.3221 -0.10234 -0.29886 0.15377 -0.3697 0.20354 -0.22908 0.4035 0.37391 0.47247 0.041236 -0.26902 -0.25978 -0.11549 -0.05967 -0.38557 -0.1771 0.057339 -0.013457 0.14074 0.052561 -0.084316 0.18599 0.052734 0.224 -0.015718 -0.19844 -0.77889 0.084829 0.26423 0.11346 -0.25382 0.19409 0.28628 -0.42394 0.2019 0.61871 -0.25224 -0.14918 0.17495 -0.16068 -0.01357 -0.31032 -0.55676 0.36292 0.23678 -0.0039157 0.080145 -0.15942 0.4344 -0.14311 0.048187 0.18608 -0.092186 -0.21727 -0.16223 -0.0010287 -0.29389 -0.80861 0.045484 0.19271 -0.36306 0.062891 0.053628 0.22844 0.26019 -0.08747 -0.5506 0.39837 0.3169 -0.29759 0.3891 -0.62897 -0.72113 -0.090281 -0.4302 -0.10947 0.49687 0.13661 -0.001113 -0.31758 -0.61091 -0.22543 -0.57949 0.085977 0.15255 -0.2399 -0.14142 0.20866 -0.0039507 -0.22283 -0.13949 -0.38991 0.6941 0.12609 0.24304 0.26163 0.31018 0.28239 0.091971 -0.13998 0.19491 0.43517 -0.16054 -0.11753 0.78824 -1.3378 0.44547 -0.31675 -0.21942 -0.11469 -0.211 0.23052 0.31071 -0.22245 -0.058431 0.85367 0.19937 -0.11716 -0.18605 0.26697 0.031276 -0.11202 -0.17063 -0.11566 -0.22268 0.20799 0.032008 0.27819 0.27076 0.0086183 0.16088 -0.16457 0.22996 0.044692 -0.29411 0.27579 -0.12753 0.17538 0.40261 0.082017 0.47507 -0.059245 0.17938 0.26704 0.18184 -0.33024 -0.36489 -0.0093083 0.06119 0.19804 -0.1253 0.025385 0.095832 -0.33058 -0.031737 -0.12239 -0.31603 -0.62607 -0.33293 0.44448 -0.45576 1.2087 0.029586 0.10941 0.1879 -0.20781 0.39291 0.10867 -0.47106 0.025568 -0.029462 -0.34244 -0.39391 -0.27913 0.050073 0.036237 0.31311 0.088226 0.1212 -0.20487 0.14069 0.62009 -0.034575 -0.30751 -0.23115 -0.65017 -0.096079 0.32323 0.13176 -0.21783 0.075021 0.12513 -0.17993 -0.48059 -0.022553 0.37906 0.16495 0.28426 -0.20347 0.10655 0.23264 0.20218 0.079759 0.033684 -0.11993 -0.46239 -0.43971 0.33866 -0.032447 -0.37182 0.30105 0.19778 -0.24392 0.32866 -0.44968 0.73862 -0.52219 -0.44221 -0.14291 -0.46289 -0.042005 -0.046134 -0.36122 -0.076364 0.13321 -0.13733 -0.14888 0.044214 0.21131 -0.39261 0.062531 0.1239 -0.12035 0.19577 0.35788 -0.56875 -0.10889 -1.5971 -0.26548 -0.082227 0.13617 -0.3137 0.12832 0.23315 -0.47355 0.096017 0.29856 -0.23967 -0.27037 -0.085428 -0.44404 0.21293 -0.1729 0.01338 0.45064 0.12472 0.54997 -0.19647 -0.39002 -0.062974 0.096852
